// #### Generated By: http://www.cufonfonts.com ####
/*!
 * The following copyright notice may not be removed under any circumstances.
 * 
 * Copyright:
 * ©G.M.
 * 
 * Trademark:
 * GM / Walkway
 */
Cufon.registerFont({"w":525,"face":{"font-family":"Walkway Black","font-weight":400,"font-stretch":"normal","units-per-em":"1000","panose-1":"0 0 4 0 0 0 0 0 0 0","ascent":"800","descent":"-200","x-height":"11","bbox":"-186 -874 1069 179.012","underline-thickness":"30","underline-position":"-118","unicode-range":"U+0020-U+2122"},"glyphs":{" ":{"w":354},"!":{"d":"50,-155r0,-523r96,0r0,523r-96,0xm145,-103v0,52,4,103,-48,103v-26,0,-49,-19,-48,-45r0,-58v-1,-26,21,-44,48,-44v26,0,48,18,48,44","w":194},"\"":{"d":"203,-547v-59,0,-48,-43,-48,-92v0,-22,16,-33,48,-33v59,0,47,42,48,91v0,23,-16,34,-48,34xm87,-547v-58,0,-46,-43,-47,-92v0,-22,16,-33,47,-33v60,0,49,41,49,91v0,23,-16,34,-49,34","w":292},"#":{"d":"479,-325r-91,0r-6,21r88,0r-21,80r-90,0r-19,63r-99,0r19,-63r-42,0r-19,63r-99,0r19,-63r-87,0r21,-80r90,0r6,-21r-91,0r27,-80r88,0r19,-63r99,0r-19,63r42,0r18,-63r98,0r-18,63r88,0xm248,-325r-6,21r42,0r6,-21r-42,0","w":531},"$":{"d":"631,-180v0,103,-95,170,-193,189r0,61r-96,0r0,-49r-51,-2r0,51r-96,0r0,-64v-146,-42,-207,-120,-197,-276r97,0v-6,98,20,155,100,183r0,-241v-116,-30,-174,-89,-174,-176v0,-96,58,-157,174,-184r0,-65r96,0r0,54r51,1r0,-55r96,0r0,68v117,30,177,112,179,245r-94,0v-5,-80,-34,-131,-85,-152r0,222v118,29,193,67,193,190xm342,-610v-16,-1,-36,-2,-51,0r0,210r51,10r0,-220xm195,-595v-52,17,-78,48,-78,91v0,37,26,65,78,82r0,-173xm535,-183v0,-74,-34,-67,-97,-94r0,195v65,-19,97,-53,97,-101xm342,-299r-51,-9r0,239r51,1r0,-231","w":642},"%":{"d":"732,-172v1,119,-57,191,-172,191v-115,0,-172,-72,-171,-191v0,-130,57,-195,172,-195v114,0,171,65,171,195xm177,2r-118,0r532,-680r117,0xm363,-465v0,117,-59,190,-173,190v-113,0,-170,-73,-170,-190v0,-129,57,-194,171,-194v115,0,172,65,172,194xm560,-279v-49,0,-74,36,-74,107v0,69,25,104,75,104v49,0,74,-35,74,-104v0,-71,-25,-107,-75,-107xm190,-572v-49,0,-73,36,-73,107v0,69,25,103,74,103v50,0,75,-34,75,-103v0,-71,-25,-107,-76,-107","w":750},"&":{"d":"261,-71v130,-2,206,-88,203,-234r96,0r0,324r-96,0r0,-76v-126,132,-455,79,-455,-110v0,-81,60,-152,180,-214v-60,-39,-90,-89,-90,-149v0,-93,92,-148,190,-148v103,0,193,53,192,149v0,69,-68,137,-204,204v-61,31,-102,54,-122,71v-33,28,-50,57,-50,87v1,62,86,97,156,96xm385,-530v-1,-83,-189,-82,-190,0v0,42,30,76,90,103v67,-37,100,-71,100,-103","w":603},"'":{"d":"87,-547v-58,0,-46,-43,-47,-92v0,-22,16,-33,47,-33v60,0,49,41,49,91v0,23,-16,34,-49,34","w":175},"(":{"d":"130,-283v0,202,60,312,155,451r-111,0v-187,-266,-187,-637,0,-902r111,0v-95,140,-155,248,-155,451","w":233},")":{"d":"103,-283v0,-203,-64,-311,-161,-451r112,0v193,259,193,643,0,902r-112,0v98,-140,161,-247,161,-451","w":233},"*":{"d":"209,-618v48,-24,88,-21,100,23v0,16,-12,29,-36,38v25,11,37,23,37,38v-9,43,-59,47,-101,23v5,35,-18,53,-48,53v-38,0,-51,-17,-48,-53v-41,21,-101,23,-101,-22v0,-15,12,-28,36,-39v-57,-16,-38,-76,11,-76v24,0,17,3,54,15v-3,-36,9,-54,48,-54v30,0,53,19,48,54","w":340},"+":{"d":"328,-210r0,143r-96,0r0,-143r-191,0r0,-82r191,0r0,-141r96,0r0,141r192,0r0,82r-192,0","w":560},",":{"d":"107,-60v12,-43,112,-28,92,21r-42,103v-10,40,-116,35,-92,-22","w":262},"-":{"d":"14,-254r0,-20r332,0r0,20r-332,0","w":350},"\u2010":{"d":"14,-254r0,-20r332,0r0,20r-332,0","w":350},".":{"d":"105,2v-47,0,-48,-18,-48,-58v0,-19,16,-29,48,-29v47,0,48,18,48,58v0,19,-16,29,-48,29","w":209},"\/":{"d":"46,0r-105,0r372,-694r105,0","w":350},"0":{"d":"573,-252v1,159,-114,264,-280,264v-165,0,-283,-105,-282,-264r0,-154v-1,-159,118,-265,282,-265v166,0,281,106,280,265r0,154xm292,-75v113,0,185,-68,185,-177r0,-154v1,-109,-73,-178,-185,-178v-113,0,-185,69,-185,178r0,154v0,107,74,177,185,177","w":584},"1":{"d":"252,0r0,-513r-104,77r-151,0r279,-210r72,0r0,646r-96,0","w":413},"2":{"d":"297,-657v135,-2,250,55,249,178v0,62,-58,125,-177,183v-115,56,-210,117,-244,209r452,0r0,87r-557,0v0,-238,192,-315,357,-403v49,-27,74,-53,74,-79v0,-59,-49,-88,-148,-88v-128,0,-173,50,-174,182r-96,0v-2,-187,90,-266,264,-269","w":584},"3":{"d":"579,-191v0,132,-137,203,-282,202v-181,-2,-311,-86,-293,-275r96,0r0,56v1,91,91,132,193,132v95,0,191,-35,191,-115v0,-73,-57,-110,-172,-110r-83,0r0,-88r84,0v105,0,157,-31,157,-92v0,-66,-84,-90,-164,-89v-133,1,-184,42,-186,172r-96,0v-2,-185,100,-258,279,-259v139,-2,264,53,263,176v0,60,-25,105,-74,135v58,34,87,86,87,155","w":584},"4":{"d":"457,-201r0,201r-96,0r0,-201r-390,0r247,-446r106,0r-199,359r236,0r0,-361r96,4r0,357r129,0r0,87r-129,0","w":584},"5":{"d":"572,-225v0,149,-126,238,-284,236v-182,-3,-288,-76,-286,-265r96,0v-1,139,63,176,191,178v107,2,187,-47,187,-148v0,-101,-88,-150,-195,-149v-75,0,-133,29,-174,88r-85,0r17,-361r503,0r0,87r-409,0r-7,136v44,-25,97,-37,159,-37v157,-2,287,87,287,235","w":584},"6":{"d":"26,-436v-2,-139,123,-219,269,-217v162,2,269,83,265,255r-95,0v2,-122,-61,-170,-171,-171v-113,-1,-184,56,-171,179v44,-28,100,-42,168,-42v146,0,265,81,265,220v0,138,-122,218,-267,218v-152,0,-265,-81,-264,-236xm461,-212v0,-90,-75,-136,-171,-136v-96,0,-170,45,-170,136v0,89,75,134,170,134v96,0,171,-44,171,-134","w":584},"7":{"d":"235,0r-105,0r306,-559r-407,0r0,-87r559,0","w":584},"8":{"d":"597,-195v1,143,-135,206,-296,206v-160,0,-297,-62,-296,-208v0,-72,34,-125,103,-160v-45,-30,-68,-69,-68,-117v-1,-128,118,-183,261,-183v141,0,263,56,262,183v0,48,-24,87,-71,117v70,35,105,89,105,162xm302,-394v70,0,165,-23,165,-81v0,-63,-55,-95,-166,-95v-110,0,-165,32,-165,97v0,55,97,79,166,79xm302,-307v-134,0,-201,37,-201,111v0,80,67,120,200,120v133,0,200,-40,200,-120v0,-74,-66,-111,-199,-111","w":601},"9":{"d":"295,-662v151,0,264,85,264,237r0,223v2,138,-124,219,-270,217v-164,-2,-268,-82,-264,-254r95,0v-2,125,58,168,170,170v95,2,170,-46,171,-135r0,-61v-44,28,-100,42,-168,42v-145,2,-264,-80,-264,-219v0,-139,121,-220,266,-220xm465,-442v0,-90,-75,-136,-171,-136v-97,0,-170,44,-170,136v0,91,74,135,170,135v96,0,171,-45,171,-135","w":584},":":{"d":"171,-366v0,25,-22,44,-48,44v-26,0,-49,-18,-48,-44r0,-55v-1,-26,22,-44,48,-44v51,0,49,50,48,99xm171,-42v0,26,-21,44,-48,44v-26,0,-49,-18,-48,-44r0,-55v-1,-26,22,-44,48,-44v51,0,49,50,48,99","w":244},";":{"d":"191,-364v0,26,-21,44,-48,44v-26,0,-49,-18,-48,-44r0,-57v-1,-26,22,-44,48,-44v26,0,48,19,48,44r0,57xm101,-101v11,-48,100,-38,94,10v-6,54,-32,98,-44,149v-11,49,-101,39,-95,-10v6,-54,33,-98,45,-149","w":251},"<":{"d":"11,-208r0,-65r505,-175r0,89r-345,119r345,119r0,89","w":535},"=":{"d":"13,-245r0,-68r605,0r0,68r-605,0xm13,-167r0,-68r605,0r0,68r-605,0","w":630},">":{"d":"11,-32r0,-89r344,-119r-344,-119r0,-89r505,175r0,65","w":535},"?":{"d":"265,-694v125,-2,243,62,243,177v0,62,-39,119,-113,177v-81,64,-98,86,-91,185r-97,0v-7,-118,23,-166,112,-240v56,-47,93,-52,93,-122v0,-65,-71,-91,-148,-90v-124,3,-158,54,-174,176r-91,-47v20,-145,110,-214,266,-216xm303,-45v1,26,-23,45,-49,45v-51,0,-47,-52,-47,-103v0,-26,21,-45,47,-45v26,0,49,17,49,45r0,58"},"@":{"d":"817,-394v0,123,-94,265,-223,265v-32,0,-53,-12,-63,-37v-90,70,-269,68,-336,-24v-65,-90,-37,-231,31,-306v75,-82,254,-108,348,-37r6,-42r85,0r-2,22r-6,-7v7,73,-12,160,-37,357v-9,7,-9,7,-14,8v-1,5,-5,7,-12,4v-4,-2,-12,-11,-25,-27v101,8,149,-109,151,-178v4,-131,-138,-212,-280,-212v-172,0,-317,97,-319,268v-2,161,151,268,318,264v119,-2,234,-53,283,-136r109,0v-54,90,-95,137,-187,179v-273,126,-622,-30,-622,-312v0,-209,197,-350,414,-350v197,0,381,115,381,301xm550,-381v0,-76,-48,-109,-129,-109v-102,0,-173,79,-173,179v0,75,40,113,121,111v102,-2,181,-74,181,-181","w":840},"A":{"d":"584,0r-97,-200r-334,0r-99,200r-108,0r340,-678r75,0r328,678r-105,0xm323,-537r-126,250r248,0","w":636},"B":{"d":"643,-198v1,135,-133,198,-284,198r-347,0r0,-678r360,0v134,-2,250,64,249,188v0,54,-26,98,-79,132v67,32,101,85,101,160xm525,-494v0,-72,-75,-97,-155,-97r-262,0r0,195r261,0v80,0,156,-26,156,-98xm548,-197v0,-86,-86,-111,-181,-111r-259,0r0,221r263,0v91,1,177,-32,177,-110","w":642},"C":{"d":"14,-334v0,-219,164,-351,388,-351v137,0,244,50,319,149r-81,49v-56,-75,-116,-110,-238,-111v-171,-3,-292,96,-292,260v0,162,113,261,281,258v120,-2,181,-40,241,-112r82,49v-83,100,-190,150,-322,150v-219,0,-378,-128,-378,-341","w":719},"D":{"d":"675,-338v0,220,-166,338,-398,338r-257,0r0,-678r295,0v225,-2,360,120,360,340xm579,-338v0,-172,-90,-253,-265,-253r-198,0r0,504r164,0v182,1,298,-77,299,-251","w":680},"E":{"d":"20,0r0,-678r561,0r0,87r-466,0r0,195r413,0r0,87r-413,0r0,222r471,0r0,87r-566,0","w":564},"F":{"d":"115,-591r0,195r368,0r0,87r-368,0r0,309r-95,0r0,-678r525,0r0,87r-430,0","w":505},"G":{"d":"93,-338v0,172,119,258,298,258v130,0,257,-66,258,-186r-290,0r0,-88r382,0v45,236,-133,360,-350,361v-230,2,-395,-122,-395,-344v0,-218,164,-351,388,-348v208,3,317,81,358,267r-98,0v-31,-126,-105,-179,-259,-180v-175,-2,-292,92,-292,260","w":758},"H":{"d":"565,0r0,-309r-449,0r0,309r-96,0r0,-678r96,0r0,282r449,0r0,-282r96,0r0,678r-96,0","w":680},"I":{"d":"20,0r0,-678r96,0r0,678r-96,0","w":134},"J":{"d":"462,-205v0,143,-92,213,-239,212v-148,0,-230,-69,-245,-207r97,0v11,90,45,120,144,120v110,0,147,-25,147,-130r0,-468r96,0r0,473","w":486},"K":{"d":"607,0r-371,-328r-120,86r0,242r-96,0r0,-678r96,0r0,327r469,-327r158,0r-429,297r430,381r-137,0","w":670},"L":{"d":"20,0r0,-678r96,0r0,591r428,0r0,87r-524,0","w":505},"M":{"d":"703,0r0,-478r-259,478r-69,0r-259,-478r0,478r-96,0r0,-678r94,0r295,545r296,-545r94,0r0,678r-96,0","w":819},"N":{"d":"574,0r-458,-526r0,526r-96,0r0,-678r86,0r231,266r228,257r0,-523r96,0r0,678r-87,0","w":680},"O":{"d":"762,-338v0,217,-159,345,-383,345v-226,0,-382,-126,-382,-345v0,-217,156,-337,382,-337v226,0,383,120,383,337xm666,-338v0,-168,-113,-250,-287,-250v-174,0,-285,83,-285,250v0,165,113,258,285,258v174,0,287,-91,287,-258","w":757},"P":{"d":"627,-475v0,132,-133,198,-281,198r-230,0r0,277r-96,0r0,-678r337,0v180,0,270,68,270,203xm116,-364v162,-8,414,43,414,-110v0,-78,-56,-117,-167,-117r-247,0r0,227","w":621},"Q":{"d":"762,-336v0,153,-83,266,-199,313r146,1r0,88v-114,0,-217,11,-273,-56v-257,26,-439,-107,-439,-346v0,-218,156,-339,382,-339v225,0,383,119,383,339xm666,-336v0,-167,-113,-251,-287,-251v-173,0,-285,85,-285,251v0,63,15,116,46,158v36,-49,89,-74,158,-74v98,0,188,68,188,162v120,-35,180,-117,180,-246xm393,-75v17,-102,-155,-119,-183,-42v49,30,109,43,183,42","w":757},"R":{"d":"542,-331v52,33,78,82,78,148r0,183r-96,0r0,-180v0,-69,-55,-104,-164,-104r-244,0r0,284r-96,0r0,-678r349,0v174,0,261,63,261,188v0,71,-29,124,-88,159xm116,-372v165,-8,418,43,418,-115v0,-69,-54,-104,-163,-104r-255,0r0,219","w":642},"S":{"d":"631,-183v0,130,-154,190,-301,190v-199,0,-351,-74,-332,-278r97,0v-11,141,60,187,236,191v99,2,204,-25,204,-105v0,-64,-33,-72,-91,-89v-47,-14,-290,-56,-320,-79v-69,-33,-103,-82,-103,-148v0,-123,97,-184,290,-184v201,0,303,82,306,247r-94,0v-10,-138,-69,-160,-212,-160v-129,0,-194,32,-194,97v0,31,15,54,46,69v25,12,70,23,133,34v124,21,207,43,250,67v57,32,85,81,85,148","w":642},"T":{"d":"321,-591r0,591r-96,0r0,-591r-260,0r0,-87r615,0r0,87r-259,0","w":545},"U":{"d":"644,-259v-2,187,-113,266,-312,266v-208,0,-312,-89,-312,-268r0,-417r96,0r0,417v2,132,75,182,216,181v138,-1,216,-46,216,-178r0,-420r96,0r0,419","w":664},"V":{"d":"354,0r-71,0r-328,-678r103,0r260,537r253,-537r103,0","w":628},"W":{"d":"704,0r-73,0r-144,-309r-140,309r-73,0r-315,-678r103,0r248,534r124,-277r-118,-257r103,0r248,534r241,-534r103,0","w":970},"X":{"d":"560,0r-256,-280r-259,280r-125,0r320,-348r-305,-330r127,0r242,263r244,-263r126,0r-306,330r316,348r-124,0","w":604},"Y":{"d":"362,-320r0,320r-96,0r0,-320r-351,-358r127,0r271,275r272,-275r126,0","w":626},"Z":{"d":"-1,0r0,-72r480,-519r-450,0r0,-87r591,0r0,71r-480,520r488,0r0,87r-629,0","w":626},"[":{"d":"64,168r0,-902r193,0r0,89r-97,0r0,724r97,0r0,89r-193,0","w":233},"\\":{"d":"306,0r-375,-694r105,0r375,694r-105,0","w":350},"]":{"d":"168,168r-192,0r0,-89r97,0r0,-724r-97,0r0,-89r194,0","w":233},"^":{"d":"192,-511r-45,-48r-45,48r-113,0r127,-135r60,0r134,135r-118,0","w":298},"_":{"d":"-38,119r0,-48r601,0r0,48r-601,0"},"`":{"d":"123,-539v-28,-15,-62,-36,-104,-63v-32,-21,-43,-46,-6,-63v21,-9,41,-8,61,4v22,13,57,32,99,61v33,23,44,46,7,64v-17,8,-37,8,-57,-3","w":193},"a":{"d":"-9,-243v0,-156,114,-257,273,-257v71,0,130,18,177,54r0,-52r96,0r0,499r-96,0r0,-46v-47,37,-107,56,-181,56v-156,0,-269,-101,-269,-254xm441,-243v0,-110,-68,-172,-182,-172v-104,0,-172,69,-172,172v0,104,68,169,172,169v105,0,183,-69,182,-169","w":564},"b":{"d":"564,-251v0,160,-110,261,-272,261v-68,0,-126,-20,-175,-59r0,50r-96,0r0,-679r96,0r0,216v47,-37,105,-56,176,-56v163,0,271,105,271,267xm469,-252v0,-109,-64,-180,-172,-179v-120,0,-180,60,-180,181v-1,103,75,173,181,173v106,0,171,-69,171,-175","w":564},"c":{"d":"533,-175v-31,124,-116,184,-259,186v-160,3,-279,-94,-279,-247v0,-162,120,-268,290,-264v131,3,211,58,242,172r-88,40v-26,-87,-56,-124,-156,-127v-117,-2,-191,68,-191,179v0,105,73,164,181,162v100,-2,149,-36,168,-137"},"d":{"d":"-9,-252v0,-160,111,-266,273,-266v71,0,130,19,177,56r0,-216r96,0r0,679r-96,0r0,-48v-47,39,-107,58,-181,58v-158,0,-269,-107,-269,-263xm441,-252v0,-112,-66,-179,-182,-179v-106,0,-172,76,-172,179v0,106,66,176,172,176v106,0,183,-74,182,-176","w":564},"e":{"d":"265,-500v175,2,296,102,276,293r-455,1v11,88,70,132,176,132v87,0,145,-36,175,-109r99,0v-47,136,-119,191,-276,194v-167,3,-272,-92,-272,-254v-1,-152,117,-259,277,-257xm437,-291v-15,-76,-79,-124,-172,-124v-94,0,-158,49,-176,124r348,0"},"f":{"d":"364,-580v-126,4,-201,11,-203,121r111,0r0,88r-111,0r0,372r-96,0r0,-372r-73,0r0,-88r73,0v-3,-143,96,-205,299,-207r0,86","w":267},"g":{"d":"527,-32v-1,146,-104,212,-261,211v-151,-2,-238,-59,-246,-208r95,0v11,91,49,120,152,121v108,0,165,-32,164,-134v-49,35,-107,53,-174,53v-159,0,-265,-103,-265,-254v0,-154,112,-257,272,-257v65,0,121,18,167,53r0,-42r96,0r0,457xm431,-241v0,-97,-69,-172,-169,-172v-103,0,-174,71,-173,170v0,101,62,167,166,167v106,0,176,-63,176,-165","w":545},"h":{"d":"274,-518v126,-1,229,65,229,184r0,334r-96,0r0,-325v0,-71,-44,-106,-132,-106v-96,0,-158,57,-158,149r0,282r-96,0r0,-678r96,0r0,204v42,-29,94,-44,157,-44"},"i":{"d":"117,-571v-31,40,-76,42,-96,-6r0,-74v24,-48,63,-46,96,-5r0,85xm21,0r0,-508r96,0r0,508r-96,0","w":136},"j":{"d":"117,-569v-31,40,-76,42,-96,-6r0,-76v24,-48,63,-46,96,-5r0,87xm-186,91v128,-3,204,-17,204,-128r0,-467r96,0r0,468v0,143,-100,215,-300,215r0,-88","w":136},"k":{"d":"281,-300r305,300r-131,0r-252,-248r-86,57r0,191r-96,0r0,-678r96,0r0,379r313,-210r168,4","w":532},"l":{"d":"21,0r0,-678r96,0r0,678r-96,0","w":136},"m":{"d":"590,-500v126,-1,206,57,206,178r0,322r-96,0r0,-313v-1,-74,-33,-102,-108,-102v-79,-1,-135,40,-135,114r0,301r-96,0r0,-313v-1,-74,-35,-102,-111,-102v-82,-1,-134,60,-133,143r0,272r-96,0r0,-490r96,0r0,30v83,-59,241,-54,301,23v39,-42,96,-63,172,-63","w":817},"n":{"d":"117,-457v127,-88,386,-41,386,135r0,322r-96,0r0,-313v0,-68,-44,-102,-132,-102v-94,0,-158,54,-158,143r0,272r-96,0r0,-490r96,0r0,33"},"o":{"d":"555,-244v0,155,-121,255,-283,255v-163,0,-281,-100,-281,-255v0,-155,121,-256,283,-256v163,0,281,101,281,256xm459,-244v0,-107,-73,-171,-186,-171v-112,0,-185,65,-185,171v0,105,75,170,185,170v110,0,186,-65,186,-170","w":545},"p":{"d":"564,-238v0,162,-108,268,-271,266v-70,0,-129,-19,-176,-57r0,197r-96,0r0,-657r96,0r0,45v47,-37,106,-56,175,-56v163,0,272,103,272,262xm469,-237v0,-104,-64,-176,-171,-176v-108,0,-182,69,-181,174v0,119,60,179,180,179v107,0,172,-69,172,-177","w":564},"q":{"d":"-9,-238v0,-153,114,-262,271,-262v71,0,131,19,178,56r0,-45r96,0r0,657r-96,0r0,-193v-45,35,-106,53,-182,53v-155,0,-267,-113,-267,-266xm441,-237v1,-106,-74,-176,-184,-176v-105,0,-169,70,-169,176v0,102,64,177,170,177v122,0,183,-59,183,-177","w":564},"r":{"d":"330,-415v-154,-2,-213,73,-213,214r0,201r-96,0r0,-490r96,0r0,45v47,-37,118,-55,213,-55r0,85","w":318},"s":{"d":"473,-138v0,103,-105,151,-224,151v-163,0,-245,-75,-245,-226r98,0v1,107,39,139,148,139v83,0,125,-21,125,-64v0,-51,-121,-62,-182,-70v-112,-15,-168,-63,-168,-141v0,-98,103,-152,207,-152v158,0,237,69,238,206r-99,0v-2,-94,-37,-118,-134,-119v-55,-1,-114,19,-114,65v0,25,26,41,79,50r105,18v111,17,166,65,166,143","w":486},"t":{"d":"179,-391r0,391r-94,0r-2,-391r-100,0r0,-87r100,0r0,-136r96,0r0,136r101,0r0,87r-101,0","w":263},"u":{"d":"250,11v-132,2,-229,-64,-229,-188r0,-311r96,0r0,310v0,69,44,104,133,104v105,0,157,-50,157,-151r0,-263r96,0r0,490r-96,0r0,-34v-43,29,-95,43,-157,43"},"v":{"d":"282,0r-73,0r-260,-488r110,0r185,357r172,-357r105,0","w":471},"w":{"d":"575,0r-76,0r-108,-214r-100,214r-75,0r-247,-488r108,0r175,354r85,-188r-85,-166r109,0r174,354r161,-354r105,0","w":771},"x":{"d":"420,0r-187,-188r-186,188r-128,0r251,-252r-230,-236r128,0r165,173r169,-173r126,0r-231,236r251,252r-128,0","w":467},"y":{"d":"503,-31v0,147,-107,211,-262,210v-149,-2,-238,-59,-245,-208r95,0v11,91,49,120,152,121v103,0,157,-36,163,-107v-43,29,-95,44,-156,44v-132,2,-229,-68,-229,-195r0,-322r96,0r0,321v0,72,44,108,133,108v105,0,157,-52,157,-157r0,-272r96,0r0,457"},"z":{"d":"-10,0r0,-68r332,-335r-302,0r0,-85r446,0r0,67r-332,336r349,0r0,85r-493,0","w":473},"{":{"d":"224,21v3,38,-6,58,20,58r48,0r0,89v-103,10,-164,-28,-164,-123r0,-211v-4,-78,-7,-50,-76,-86r0,-63v69,-34,76,-8,76,-85r0,-211v-1,-93,60,-135,164,-123r0,89r-48,0v-26,4,-17,20,-20,57v-6,107,21,255,-38,305v59,46,32,200,38,304","w":350},"|":{"d":"69,32r0,-738r96,0r0,738r-96,0","w":233},"}":{"d":"292,-252v-70,35,-76,7,-76,86r0,211v1,93,-61,134,-164,123r0,-89r47,0v26,-4,18,-20,21,-58v5,-104,-20,-256,37,-304v-58,-51,-31,-200,-37,-305v-2,-37,5,-57,-21,-57r-47,0r0,-89v103,-11,164,30,164,123r0,211v3,78,6,50,76,85r0,63","w":350},"~":{"d":"537,-456v-18,78,-73,99,-157,105v-27,2,-185,-39,-212,-39v-34,1,-39,10,-48,40r-108,0v18,-77,74,-99,158,-105v26,-2,183,41,210,40v25,0,41,-14,49,-41r108,0","w":548},"\u00a1":{"d":"146,-480v0,26,-22,44,-48,44v-25,0,-48,-17,-48,-44r0,-58v-1,-26,22,-45,48,-45v51,0,48,51,48,103xm49,95r0,-523r96,0r0,523r-96,0","w":194},"\u00a2":{"d":"533,-175v-29,157,-188,218,-361,175r-20,36r-106,0r44,-77v-63,-47,-95,-112,-95,-197v-1,-182,146,-292,345,-264r27,-49r105,0r-44,80v46,26,79,73,99,140r-87,40v-15,-51,-33,-85,-54,-101r-171,313v121,22,210,-12,226,-133xm296,-419v-125,-9,-204,64,-204,181v0,49,14,87,42,115"},"\u00a3":{"d":"171,-226v10,92,81,153,184,151v56,0,109,-24,160,-71r72,57v-71,67,-148,101,-231,101v-157,0,-272,-95,-281,-238r-82,0r15,-87r66,0r0,-27r-60,0r21,-87r39,0v9,-146,124,-244,282,-244v83,0,160,33,230,100r-71,60v-109,-128,-341,-75,-345,84r303,0r-21,87r-282,0r0,27r275,0r-15,87r-259,0","w":584},"\u00a4":{"d":"480,-185r-102,-77v-56,27,-137,27,-192,-1r-103,78r-74,-53r107,-81v-29,-41,-28,-98,1,-139r-108,-81r74,-53r104,79v55,-27,134,-27,189,0r104,-79r74,53r-108,81v32,41,32,98,1,140r107,80xm376,-387v-3,-87,-185,-84,-186,-1v1,85,184,84,186,1","w":584},"\u00a5":{"d":"372,-317r212,0r0,88r-212,0r0,26r212,0r0,87r-212,0r0,116r-96,0r0,-116r-212,0r0,-87r212,0r0,-26r-212,0r0,-88r212,0r0,-3r-351,-358r127,0r271,275r272,-275r126,0","w":645},"\u00a6":{"d":"69,-340r0,-356r96,0r0,356r-96,0xm69,23r0,-356r96,0r0,356r-96,0","w":233},"\u00a7":{"d":"289,-563v-58,0,-114,20,-116,70v0,19,13,32,38,42v35,15,208,27,248,67v90,51,82,188,-6,234v35,25,53,59,53,100v0,99,-101,158,-207,158v-157,0,-235,-70,-235,-211r96,0v1,96,36,123,134,123v77,0,116,-23,116,-70v0,-26,-21,-41,-61,-50v-91,-19,-193,-25,-248,-83v-64,-66,-43,-168,29,-209v-35,-25,-53,-59,-53,-101v0,-99,100,-158,206,-158v157,0,236,71,237,212r-96,0v-1,-97,-36,-123,-135,-124xm160,-290v-3,63,74,85,141,86v81,0,122,-22,125,-65v-13,-47,-62,-70,-145,-70v-67,0,-107,16,-121,49","w":584},"\u00a8":{"d":"165,-547v-42,0,-47,-14,-47,-50v0,-18,16,-27,47,-27v44,1,49,12,49,49v0,19,-16,28,-49,28xm50,-547v-43,-1,-48,-13,-48,-50v0,-18,16,-27,48,-27v43,1,48,12,48,49v0,19,-16,28,-48,28","w":214},"\u00a9":{"d":"563,-454v0,132,-138,218,-278,218v-146,0,-279,-83,-279,-217v0,-132,139,-219,277,-219v140,0,280,86,280,218xm465,-453v0,-175,-360,-176,-361,-1v0,175,359,176,361,1xm464,-452v-33,91,-68,148,-171,151v-100,3,-183,-56,-183,-150v0,-93,82,-147,179,-147v93,0,149,49,167,148r-98,0v-13,-43,-20,-62,-70,-62v-53,0,-80,20,-80,61v0,43,28,64,85,64v43,0,53,-25,68,-65r103,0","w":560},"\u00aa":{"d":"6,-500v0,-128,146,-190,269,-143r0,-14r98,0r0,309r-98,0r0,-10v-121,49,-269,-14,-269,-142xm275,-500v-1,-52,-32,-77,-88,-76v-55,0,-83,25,-83,76v0,51,28,76,83,76v50,0,88,-29,88,-76","w":378},"\u00ab":{"d":"210,-249r0,-49r224,-124r0,92r-98,56r98,56r0,89xm34,-249r0,-49r224,-124r0,92r-98,56r98,56r0,89","w":463},"\u00ac":{"d":"482,-134r0,-97r-470,0r0,-71r566,0r0,168r-96,0","w":602},"\u00ae":{"d":"552,-454v0,134,-135,218,-278,218v-142,0,-279,-84,-279,-217v0,-132,140,-219,278,-219v140,0,279,86,279,218xm454,-453v0,-85,-88,-133,-180,-133v-92,0,-180,48,-180,132v0,85,86,133,179,133v91,0,181,-48,181,-132xm404,-448v24,31,12,88,15,139r-99,0r0,-89v-6,-12,-53,-5,-73,-7r0,96r-98,0r0,-285r151,0v107,-8,149,75,104,146xm324,-501v-7,-12,-55,-5,-77,-7r0,17v23,-1,74,5,77,-10","w":543},"\u00b0":{"d":"397,-521v-1,177,-371,181,-374,1v-1,-83,97,-135,186,-135v91,0,188,51,188,134xm303,-520v-2,-76,-181,-76,-185,-1v3,77,181,78,185,1","w":420},"\u00b1":{"d":"363,-204r0,148r-96,0r0,-148r-191,0r0,-84r191,0r0,-145r96,0r0,145r192,0r0,84r-192,0xm77,3r0,-85r479,0r0,85r-479,0","w":630},"\u00b2":{"d":"198,-577v-74,0,-92,24,-93,102r-99,0v0,-125,63,-187,188,-187v120,0,180,40,180,119v0,103,-212,130,-261,203r281,0r0,84r-396,0v3,-163,124,-206,249,-266v18,-9,27,-18,29,-23v0,-21,-26,-32,-78,-32","w":392},"\u00b3":{"d":"419,-383v1,88,-102,133,-201,131v-127,-1,-228,-52,-210,-190r100,0r0,50v3,41,55,56,106,55v49,0,101,-10,106,-46v8,-48,-103,-45,-166,-44r0,-85v54,0,158,7,158,-34v0,-21,-30,-31,-89,-31v-79,0,-101,20,-102,97r-99,0v0,-121,67,-182,200,-182v92,0,191,35,189,116v0,31,-11,56,-34,76v28,21,42,50,42,87","w":426},"\u00b4":{"d":"129,-663v38,-32,118,16,67,51r-113,74v-37,29,-117,-17,-67,-50","w":212},"\u00b5":{"d":"482,100v-97,1,-155,-17,-180,-73v-75,5,-137,-9,-185,-43r0,187r-96,0r0,-659r96,0r0,272v0,105,52,157,156,157v89,0,134,-36,134,-108r0,-321r96,0r0,322v1,78,-36,139,-102,167v0,6,27,9,81,9r0,90"},"\u00b6":{"d":"25,-448v0,-141,140,-230,290,-230r157,0r0,811r-96,0r0,-723r-11,0r0,723r-96,0r0,-351v-128,-5,-244,-103,-244,-230","w":496},"\u00b8":{"d":"160,101v-63,-2,-43,-2,-95,15v-2,-48,5,-86,11,-125r93,0r-2,37v65,5,97,29,97,72v0,49,-47,74,-141,74v-28,0,-77,-7,-148,-22r49,-66v62,15,90,18,136,15","w":259},"\u00b9":{"d":"146,-260r0,-274r-63,34r-182,0r275,-153r71,0r0,393r-101,0","w":287},"\u00ba":{"d":"406,-503v1,98,-96,153,-201,153v-103,0,-196,-54,-196,-153v0,-99,93,-153,199,-153v105,0,198,56,198,153xm312,-503v0,-51,-48,-75,-106,-75v-58,0,-103,24,-103,75v0,50,34,75,103,75v71,0,106,-25,106,-75","w":413},"\u00bb":{"d":"210,-129r0,-89r97,-56r-97,-56r0,-92r224,124r0,49xm34,-129r0,-89r97,-56r-97,-56r0,-92r224,124r0,49","w":458},"\u00bc":{"d":"702,-123r0,123r-95,0r0,-123r-293,0r198,-305r109,0r-142,220r128,0r0,-222r95,5r0,217r92,0r0,85r-92,0xm245,0r-105,0r371,-694r105,0xm169,-236r0,-299r-65,38r-171,0r263,-158r69,0r0,419r-96,0","w":816},"\u00bd":{"d":"598,-347v-78,0,-93,29,-96,112r-94,0v1,-131,63,-197,186,-197v118,0,177,42,177,125v0,113,-218,140,-262,222r282,0r0,85r-391,0v2,-103,52,-180,149,-230v36,-19,113,-52,129,-78v0,-26,-27,-39,-80,-39xm234,0r-105,0r372,-694r105,0xm158,-236r0,-298r-64,37r-172,0r263,-158r69,0r0,419r-96,0","w":803},"\u00be":{"d":"793,-123r0,123r-95,0r0,-123r-293,0r199,-305r109,0r-143,220r128,0r0,-222r95,5r0,217r92,0r0,85r-92,0xm336,0r-105,0r372,-694r105,0xm429,-367v2,90,-100,140,-200,138v-156,-2,-219,-59,-207,-198r94,0r0,51v2,46,56,63,110,62v50,0,104,-13,109,-53v7,-54,-99,-53,-167,-51r0,-85v57,1,158,6,158,-38v0,-25,-31,-38,-92,-38v-81,0,-102,24,-105,105r-94,0v2,-126,68,-189,198,-189v97,0,189,37,187,122v0,33,-13,60,-38,81v31,23,47,54,47,93","w":906},"\u00bf":{"d":"305,-495v1,27,-24,44,-49,44v-26,1,-47,-19,-47,-44v0,-52,-5,-104,47,-104v26,0,50,19,49,45r0,59xm511,-120v-20,143,-110,213,-265,215v-126,2,-243,-61,-243,-178v0,-96,96,-158,151,-210v52,-50,58,-73,54,-151r97,0v7,118,-23,164,-114,240v-56,47,-92,52,-92,121v0,68,72,92,148,91v126,-2,157,-57,173,-180"},"\u00c0":{"d":"446,-695v3,33,-57,53,-84,26r-114,-114v-33,-28,-2,-77,35,-76v13,0,25,5,35,16v38,37,124,97,128,148xm604,0r-97,-204r-334,0r-99,204r-108,0r340,-693r75,0r328,693r-105,0xm343,-549r-126,256r248,0","w":676},"\u00c1":{"d":"362,-845v27,-33,84,-11,84,29v0,11,-5,22,-14,31r-113,113v-40,46,-115,-18,-71,-61xm604,0r-97,-205r-334,0r-99,205r-108,0r340,-693r75,0r328,693r-105,0xm343,-549r-126,256r248,0","w":676},"\u00c2":{"d":"407,-652r-68,-84r-68,84r-114,0r153,-195r59,0r156,195r-118,0xm604,0r-97,-204r-334,0r-99,204r-108,0r340,-692r75,0r328,692r-105,0xm343,-549r-126,256r248,0","w":676},"\u00c3":{"d":"522,-778v-4,70,-43,113,-107,115v-16,8,-121,-48,-136,-51v-6,0,-10,8,-13,25v0,2,-1,20,-3,54r-89,-55v-2,-91,85,-139,167,-95r74,33v6,0,10,-8,13,-23v1,-3,2,-20,4,-52xm604,0r-97,-203r-334,0r-99,203r-108,0r340,-690r75,0r328,690r-105,0xm343,-547r-126,255r248,0","w":676},"\u00c4":{"d":"447,-703v1,26,-23,45,-49,45v-47,0,-47,-45,-47,-95v0,-26,19,-46,47,-46v26,0,50,19,49,46r0,50xm331,-753v0,50,0,95,-48,95v-46,0,-48,-44,-48,-95v0,-27,22,-46,48,-46v28,0,48,20,48,46xm604,0r-97,-203r-334,0r-99,203r-108,0r340,-689r75,0r328,689r-105,0xm343,-546r-126,255r248,0","w":676},"\u00c5":{"d":"455,-770v0,60,-56,102,-116,102v-59,0,-115,-42,-115,-102v0,-60,56,-103,115,-103v62,0,116,44,116,103xm604,0r-97,-205r-334,0r-99,205r-108,0r340,-694r75,0r328,694r-105,0xm358,-770v-1,-8,-8,-12,-19,-12v-11,0,-17,4,-17,12v0,8,6,12,17,12v13,0,19,-4,19,-12xm343,-550r-126,256r248,0","w":676},"\u00c6":{"d":"553,0r0,-309r-222,0r-303,309r-126,0r666,-678r496,0r0,87r-414,0r0,194r361,1r0,87r-361,0r0,222r419,0r0,87r-516,0xm418,-397r135,0r1,-136","w":1077},"\u00c7":{"d":"14,-327v0,-222,161,-358,388,-358v137,0,244,51,319,152r-81,50v-57,-77,-114,-111,-238,-113v-172,-2,-292,98,-292,265v0,164,113,265,281,263v121,-2,181,-39,241,-114r81,50v-81,102,-188,153,-321,153v-220,0,-378,-133,-378,-348xm374,174v-28,0,-77,-10,-147,-29r49,-81v45,14,77,21,95,21v29,0,43,-4,43,-11v-33,-2,-53,-1,-98,21v-2,-59,5,-109,10,-160r94,0r-2,51v65,7,97,37,97,92v0,64,-47,96,-141,96","w":719},"\u00c8":{"d":"387,-687v3,35,-57,56,-84,26v-36,-39,-123,-96,-127,-147v-3,-33,58,-56,84,-26v35,39,123,96,127,147xm20,0r0,-692r561,0r0,88r-466,0r0,200r413,0r0,88r-413,0r0,227r471,0r0,89r-566,0","w":564},"\u00c9":{"d":"304,-834v27,-32,84,-9,84,30v0,11,-5,22,-14,31r-113,112v-40,46,-115,-18,-71,-61xm20,0r0,-692r561,0r0,88r-466,0r0,200r413,0r0,88r-413,0r0,227r471,0r0,89r-566,0","w":564},"\u00ca":{"d":"348,-662r-68,-83r-68,83r-114,0r153,-195r58,0r158,195r-119,0xm20,0r0,-693r561,0r0,89r-466,0r0,200r413,0r0,88r-413,0r0,227r471,0r0,89r-566,0","w":564},"\u00cb":{"d":"388,-761v0,50,0,95,-48,95v-46,0,-48,-44,-48,-95v0,-27,22,-46,48,-46v28,0,48,20,48,46xm273,-711v1,26,-23,45,-49,45v-47,0,-47,-45,-47,-95v0,-26,19,-46,47,-46v26,0,50,19,49,46r0,50xm20,0r0,-689r561,0r0,88r-466,0r0,199r413,0r0,87r-413,0r0,227r471,0r0,88r-566,0","w":564},"\u00cc":{"d":"173,-702v3,34,-56,54,-85,26r-113,-112v-33,-28,-3,-78,35,-77v14,0,26,5,36,16v37,38,122,97,127,147xm20,0r0,-693r96,0r0,693r-96,0","w":134},"\u00cd":{"d":"88,-845v27,-33,86,-11,86,29v0,11,-5,22,-15,31r-113,113v-38,44,-115,-16,-71,-60xm20,0r0,-693r96,0r0,693r-96,0","w":134},"\u00ce":{"d":"134,-658r-68,-84r-69,84r-114,0r153,-195r58,0r158,195r-118,0xm20,0r0,-693r96,0r0,693r-96,0","w":134},"\u00cf":{"d":"173,-771v5,50,1,98,-48,98v-48,0,-47,-46,-47,-96v0,-26,21,-45,47,-45v29,0,45,14,48,43xm57,-771v4,50,3,98,-47,98v-27,0,-51,-18,-50,-46r0,-50v-1,-27,23,-45,50,-45v29,0,44,14,47,43xm20,0r0,-690r96,0r0,690r-96,0","w":134},"\u00d0":{"d":"675,-338v0,220,-166,338,-398,338r-257,0r0,-296r-38,0r0,-88r38,0r0,-294r295,0v225,-2,360,120,360,340xm579,-338v0,-172,-90,-253,-265,-253r-198,0r0,207r198,0r0,88r-198,0r0,209r164,0v182,1,298,-77,299,-251","w":680},"\u00d1":{"d":"515,-774v-4,71,-43,114,-107,117v-16,8,-121,-48,-136,-51v-6,0,-10,8,-13,25v0,2,-1,20,-3,54r-89,-55v-2,-90,85,-140,166,-95r75,33v17,-11,13,-26,16,-72xm574,0r-458,-535r0,535r-96,0r0,-689r86,0r231,270r228,261r0,-531r96,0r0,689r-87,0","w":680},"\u00d2":{"d":"485,-699v3,34,-56,53,-84,25r-115,-113v-33,-31,-6,-76,36,-74v15,0,27,5,36,14v37,38,123,98,127,148xm762,-346v0,221,-157,353,-383,353v-228,0,-382,-131,-382,-353v0,-219,154,-344,382,-344v228,0,383,124,383,344xm666,-346v0,-169,-112,-256,-287,-256v-174,0,-285,87,-285,256v-1,168,112,264,285,264v176,0,287,-94,287,-264","w":757},"\u00d3":{"d":"400,-851v24,-31,88,-8,85,26v-4,51,-93,112,-130,149v-41,41,-111,-19,-68,-62xm762,-346v0,221,-157,353,-383,353v-228,0,-382,-131,-382,-353v0,-219,154,-344,382,-344v228,0,383,124,383,344xm666,-346v0,-169,-112,-256,-287,-256v-174,0,-285,87,-285,256v-1,168,112,264,285,264v176,0,287,-94,287,-264","w":757},"\u00d4":{"d":"445,-670r-68,-83r-68,83r-113,0r151,-194r58,0r158,194r-118,0xm762,-346v0,221,-157,353,-383,353v-228,0,-382,-131,-382,-353v0,-219,154,-344,382,-344v228,0,383,124,383,344xm666,-346v0,-169,-112,-256,-287,-256v-174,0,-285,87,-285,256v-1,168,112,264,285,264v176,0,287,-94,287,-264","w":757},"\u00d5":{"d":"557,-792v-6,92,-83,141,-169,97r-75,-33v-17,7,-15,40,-20,79r-85,-56v-4,-67,47,-111,106,-112v14,-7,120,47,134,50v7,0,11,-8,14,-23v1,-2,2,-19,4,-52xm762,-345v0,220,-158,352,-383,352v-228,0,-382,-130,-382,-352v0,-220,155,-343,382,-343v226,0,383,121,383,343xm666,-345v0,-169,-112,-254,-287,-254v-174,0,-285,86,-285,254v-1,168,112,263,285,263v176,0,287,-93,287,-263","w":757},"\u00d6":{"d":"484,-771v4,50,3,98,-47,98v-48,0,-48,-46,-48,-96v0,-28,22,-45,48,-45v29,0,44,14,47,43xm369,-771v5,50,1,98,-48,98v-48,0,-47,-46,-47,-96v0,-26,21,-45,47,-45v29,0,45,14,48,43xm762,-345v0,221,-157,352,-383,352v-228,0,-382,-130,-382,-352v0,-219,155,-342,382,-342v225,0,383,121,383,342xm666,-345v0,-168,-113,-254,-287,-254v-174,0,-285,86,-285,254v-1,168,112,264,285,264v176,0,287,-94,287,-264","w":757},"\u00d7":{"d":"381,-104r-136,-95r-137,94r-72,-52r135,-95r-134,-93r74,-53r134,95r135,-95r74,53r-135,94r137,97","w":490},"\u00d8":{"d":"762,-339v0,262,-237,395,-509,334r-18,34r-105,0r37,-68v-100,-53,-167,-157,-170,-300v-6,-258,235,-383,505,-326r21,-39r104,0r-37,71v115,59,172,157,172,294xm297,-87v203,37,369,-55,369,-252v0,-101,-40,-173,-119,-215xm458,-584v-201,-31,-364,52,-364,245v0,97,46,180,116,219","w":757},"\u00d9":{"d":"424,-727v31,27,6,76,-33,76v-12,0,-26,-3,-36,-13r-115,-115v-32,-28,-3,-77,35,-76v14,0,26,5,36,16xm644,-264v-2,189,-112,272,-312,271v-208,0,-312,-91,-312,-273r0,-426r96,0r0,425v2,135,73,185,216,185v141,0,216,-49,216,-181r0,-429r96,0r0,428","w":664},"\u00da":{"d":"353,-841v27,-33,86,-11,86,29v0,11,-5,22,-15,31r-114,114v-42,41,-114,-18,-70,-62xm644,-264v-2,189,-112,272,-312,271v-208,0,-312,-91,-312,-273r0,-427r96,0r0,426v2,135,73,185,216,185v141,0,216,-49,216,-181r0,-430r96,0r0,429","w":664},"\u00db":{"d":"399,-660r-69,-84r-68,84r-114,0r153,-195r59,0r157,195r-118,0xm644,-264v-2,189,-112,272,-312,271v-208,0,-312,-91,-312,-273r0,-427r96,0r0,426v2,135,73,185,216,185v141,0,216,-49,216,-181r0,-430r96,0r0,429","w":664},"\u00dc":{"d":"438,-769v0,50,1,96,-48,96v-48,0,-48,-46,-48,-96v0,-28,22,-45,48,-45v26,0,48,19,48,45xm323,-769v0,51,-1,96,-49,96v-48,0,-47,-46,-47,-96v0,-26,21,-45,47,-45v26,0,49,17,49,45xm644,-263v-2,189,-112,270,-312,270v-208,0,-312,-91,-312,-272r0,-425r96,0r0,424v2,134,74,185,216,185v141,0,216,-49,216,-181r0,-428r96,0r0,427","w":664},"\u00dd":{"d":"351,-845v27,-33,85,-11,85,29v0,11,-5,22,-14,31r-114,113v-40,46,-115,-18,-71,-61xm378,-327r0,327r-96,0r0,-327r-351,-366r128,0r270,281r272,-281r126,0","w":657},"\u00de":{"d":"408,-346v0,116,-57,190,-173,189r-118,0r0,157r-96,0r0,-678r96,0r0,138r119,0v115,0,172,65,172,194xm235,-453r-118,0r0,210r119,0v50,-1,75,-35,75,-103v0,-71,-25,-107,-76,-107","w":425},"\u00df":{"d":"21,-454v-7,-155,49,-236,216,-236v161,0,239,54,236,162v-2,57,-24,99,-69,124v73,49,110,113,110,192v0,177,-131,245,-339,242r0,-88v151,-3,243,-23,243,-154v0,-118,-100,-154,-243,-153r0,-88v83,0,136,-5,159,-13v29,-10,44,-30,44,-59v0,-76,-54,-77,-143,-77v-80,0,-118,26,-118,103r0,502r-96,0r0,-368r-36,0r0,-89r36,0","w":505},"\u00e0":{"d":"331,-565v40,37,36,91,-19,91v-13,0,-27,-2,-37,-12v-38,-36,-124,-95,-128,-146v-3,-34,58,-54,85,-26v21,22,55,52,99,93xm-9,-252v0,-159,111,-266,273,-266v71,0,130,19,177,57r0,-55r96,0r0,517r-96,0r0,-48v-47,39,-107,58,-181,58v-158,0,-269,-107,-269,-263xm441,-252v0,-112,-66,-178,-182,-178v-105,0,-172,76,-172,178v0,107,65,176,172,176v106,0,183,-74,182,-176","w":552},"\u00e1":{"d":"286,-658v27,-32,85,-12,85,28v0,11,-3,23,-13,32r-117,112v-41,40,-112,-18,-68,-61xm4,-252v0,-159,110,-266,272,-266v71,0,130,19,177,57r0,-55r96,0r0,517r-96,0r0,-48v-47,39,-107,58,-181,58v-157,0,-268,-106,-268,-263xm453,-252v0,-112,-66,-178,-182,-178v-104,0,-172,73,-172,178v0,107,65,176,172,176v106,0,183,-74,182,-176","w":552},"\u00e2":{"d":"331,-483r-68,-82r-68,82r-114,0r152,-191r58,0r159,191r-119,0xm4,-252v0,-159,110,-266,272,-266v71,0,130,19,177,56r0,-54r96,0r0,517r-96,0r0,-48v-47,39,-107,58,-181,58v-157,0,-268,-106,-268,-263xm453,-252v0,-112,-66,-178,-182,-178v-104,0,-172,73,-172,178v0,105,64,176,172,176v106,0,183,-74,182,-176","w":552},"\u00e3":{"d":"442,-603v-6,69,-44,110,-109,112v-15,7,-121,-45,-135,-49v-17,6,-15,39,-20,77r-85,-54v-3,-66,47,-109,106,-110v14,-7,120,47,134,49v16,2,17,-50,18,-73xm4,-251v0,-158,110,-264,272,-264v71,0,130,19,177,56r0,-54r96,0r0,514r-96,0r0,-48v-47,39,-107,58,-181,58v-158,0,-268,-105,-268,-262xm453,-251v0,-111,-67,-177,-182,-177v-104,0,-172,73,-172,177v0,106,66,175,172,175v105,0,183,-72,182,-175","w":552},"\u00e4":{"d":"383,-580v0,50,-2,95,-48,95v-47,0,-48,-45,-48,-95v0,-26,22,-44,48,-44v26,0,48,18,48,44xm268,-580v0,51,-1,95,-49,95v-46,0,-47,-46,-47,-95v0,-26,21,-44,47,-44v26,0,49,19,49,44xm4,-250v0,-158,110,-264,272,-264v71,0,130,19,177,56r0,-54r96,0r0,513r-96,0r0,-48v-47,39,-107,58,-181,58v-157,0,-268,-105,-268,-261xm453,-250v0,-111,-67,-177,-182,-177v-104,0,-172,73,-172,177v0,107,66,174,172,174v106,0,183,-73,182,-174","w":552},"\u00e5":{"d":"385,-599v0,59,-56,101,-115,101v-59,0,-116,-40,-116,-101v0,-61,57,-101,116,-101v59,0,115,42,115,101xm4,-253v0,-160,110,-267,272,-267v71,0,130,19,177,57r0,-55r96,0r0,519r-96,0r0,-48v-47,39,-107,58,-181,58v-158,0,-268,-107,-268,-264xm288,-599v0,-8,-8,-12,-18,-12v-12,0,-18,4,-18,12v0,8,6,12,18,12v12,0,18,-4,18,-12xm453,-253v0,-112,-66,-179,-182,-179v-106,0,-172,76,-172,179v0,107,65,176,172,176v106,0,183,-74,182,-176","w":552},"\u00e6":{"d":"716,-500v175,0,296,102,276,293r-489,1r34,-32v-6,112,51,163,177,164v87,0,145,-36,175,-109r100,0v-47,134,-123,194,-277,194v-72,0,-130,-16,-175,-47r0,37r-96,0r0,-46v-47,37,-107,56,-181,56v-156,0,-269,-101,-269,-254v0,-156,114,-257,273,-257v71,0,130,18,177,54r0,-52r96,0r0,56v49,-39,109,-58,179,-58xm888,-291v-15,-76,-79,-124,-172,-124v-88,0,-171,52,-179,129v50,-3,167,-4,351,-5xm441,-243v0,-110,-68,-172,-182,-172v-104,0,-172,69,-172,172v0,104,68,169,172,169v105,0,183,-69,182,-169","w":984},"\u00e7":{"d":"533,-164v-30,128,-114,189,-259,192v-162,3,-279,-99,-279,-255v0,-166,118,-276,290,-273v133,3,210,61,242,177r-88,42v-26,-88,-53,-130,-156,-132v-119,-2,-191,71,-191,186v0,106,70,171,181,168v102,-3,148,-39,168,-142xm319,77v-31,-3,-52,-2,-98,20v-2,-59,6,-107,12,-157r93,0r-2,49v64,7,96,38,96,91v0,63,-47,94,-141,94v-27,0,-76,-9,-145,-27r45,-81v47,14,80,21,97,21v29,0,43,-3,43,-10"},"\u00e8":{"d":"369,-512v3,32,-56,52,-83,26r-117,-112v-32,-30,-3,-75,37,-73v14,0,26,4,35,13v38,37,123,95,128,146xm265,-518v177,3,296,108,276,303r-455,1v11,92,70,138,176,138v87,0,145,-38,175,-113r99,0v-47,140,-118,197,-276,200v-168,3,-272,-96,-272,-263v0,-154,116,-268,277,-266xm437,-301v-14,-79,-77,-129,-172,-129v-96,0,-159,51,-176,129r348,0"},"\u00e9":{"d":"284,-659v37,-41,119,15,74,58r-119,113v-41,40,-112,-18,-68,-61xm265,-518v177,3,296,108,276,303r-455,1v11,92,70,138,176,138v87,0,145,-38,175,-113r99,0v-47,140,-118,197,-276,200v-168,3,-272,-96,-272,-263v0,-154,116,-268,277,-266xm437,-301v-14,-79,-77,-129,-172,-129v-96,0,-159,51,-176,129r348,0"},"\u00ea":{"d":"329,-483r-68,-82r-68,82r-114,0r153,-191r58,0r157,191r-118,0xm265,-518v177,3,296,108,276,303r-455,1v11,92,70,138,176,138v87,0,145,-38,175,-113r99,0v-47,140,-118,197,-276,200v-168,3,-272,-96,-272,-263v0,-154,116,-268,277,-266xm437,-302v-14,-78,-78,-128,-172,-128v-95,0,-159,51,-176,128r348,0"},"\u00eb":{"d":"370,-580v0,51,-1,95,-49,95v-46,0,-47,-46,-47,-95v0,-26,21,-44,47,-44v26,0,49,19,49,44xm254,-580v0,50,-2,95,-48,95v-47,0,-48,-45,-48,-95v0,-26,22,-44,48,-44v26,0,48,18,48,44xm265,-514v177,3,296,107,276,301r-455,1v11,91,70,136,176,136v87,0,145,-37,175,-112r99,0v-47,139,-118,196,-276,199v-168,4,-272,-95,-272,-261v0,-153,116,-266,277,-264xm437,-299v-14,-78,-78,-128,-172,-128v-94,0,-159,51,-176,128r348,0"},"\u00ec":{"d":"174,-513v3,33,-57,53,-84,26r-114,-110v-32,-28,-4,-78,35,-76v13,0,24,5,35,15v37,37,124,96,128,145xm21,0r0,-507r96,0r0,507r-96,0","w":136},"\u00ed":{"d":"90,-654v39,-44,114,17,70,60r-113,110v-38,44,-116,-16,-71,-60xm21,0r0,-507r96,0r0,507r-96,0","w":136},"\u00ee":{"d":"130,-484r-61,-79r-63,79r-113,0r146,-190r59,0r149,190r-117,0xm21,0r0,-507r96,0r0,507r-96,0","w":136},"\u00ef":{"d":"178,-580v0,50,-1,94,-49,94v-47,0,-47,-45,-47,-94v0,-26,21,-44,47,-44v26,0,49,19,49,44xm62,-580v0,50,0,94,-48,94v-48,0,-49,-44,-49,-94v0,-25,23,-44,49,-44v26,0,48,18,48,44xm21,0r0,-503r96,0r0,503r-96,0","w":136},"\u00f0":{"d":"-9,-252v0,-160,111,-266,273,-266v71,0,130,19,177,56r0,-63r-332,0r0,-88r332,0r0,-65r96,0r0,679r-96,0r0,-48v-47,39,-107,58,-181,58v-158,0,-269,-107,-269,-263xm441,-252v0,-112,-66,-179,-182,-179v-106,0,-172,76,-172,179v0,106,66,176,172,176v106,0,183,-74,182,-176","w":564},"\u00f1":{"d":"441,-604v-4,69,-43,111,-107,113v-16,7,-121,-46,-136,-49v-6,0,-10,8,-13,24v0,1,-1,19,-3,52r-89,-53v-4,-65,49,-109,106,-110v15,-7,120,46,135,49v6,0,10,-8,13,-23v1,-3,2,-19,4,-50xm274,-515v126,-1,229,65,229,184r0,331r-96,0r0,-322v0,-71,-44,-106,-132,-106v-96,0,-158,56,-158,148r0,280r-96,0r0,-504r96,0r0,33v42,-29,94,-44,157,-44"},"\u00f2":{"d":"351,-565v40,37,36,91,-19,91v-13,0,-27,-2,-37,-12v-38,-36,-124,-95,-128,-146v-3,-34,58,-54,85,-26v21,22,55,52,99,93xm555,-253v0,159,-119,264,-283,264v-163,0,-281,-104,-281,-264v0,-157,119,-265,283,-265v164,0,281,107,281,265xm459,-253v0,-110,-72,-177,-186,-177v-113,0,-185,68,-185,177v0,107,74,177,185,177v111,0,186,-70,186,-177","w":545},"\u00f3":{"d":"294,-654v39,-44,116,17,71,60r-114,110v-37,44,-116,-16,-71,-59xm555,-253v0,159,-119,264,-283,264v-163,0,-281,-104,-281,-264v0,-157,119,-264,283,-264v164,0,281,106,281,264xm459,-253v0,-110,-72,-177,-186,-177v-113,0,-185,68,-185,177v0,107,74,177,185,177v111,0,186,-70,186,-177","w":545},"\u00f4":{"d":"340,-483r-68,-82r-69,82r-114,0r153,-191r58,0r159,191r-119,0xm555,-253v0,159,-119,264,-283,264v-164,0,-281,-106,-281,-264v0,-158,119,-265,283,-265v164,0,281,107,281,265xm459,-253v0,-110,-72,-177,-186,-177v-113,0,-185,68,-185,177v0,107,74,177,185,177v111,0,186,-70,186,-177","w":545},"\u00f5":{"d":"449,-602v-7,68,-44,109,-108,111v-17,6,-117,-43,-135,-49v-18,7,-14,37,-17,77r-89,-54v-2,-92,86,-136,167,-93r74,32v21,-11,12,-29,23,-72xm555,-251v0,158,-119,262,-283,262v-164,0,-281,-105,-281,-262v0,-157,119,-264,283,-264v164,0,281,106,281,264xm459,-251v0,-110,-72,-177,-186,-177v-113,0,-185,68,-185,177v0,106,74,175,185,175v111,0,186,-69,186,-175","w":545},"\u00f6":{"d":"379,-580v0,50,-2,95,-48,95v-47,0,-48,-45,-48,-95v0,-26,22,-44,48,-44v26,0,48,18,48,44xm264,-580v0,51,-1,95,-49,95v-46,0,-47,-46,-47,-95v0,-26,21,-44,47,-44v26,0,49,19,49,44xm555,-251v0,158,-119,262,-283,262v-164,0,-281,-104,-281,-262v0,-158,119,-263,283,-263v164,0,281,106,281,263xm459,-251v0,-109,-72,-176,-186,-176v-113,0,-185,68,-185,176v0,107,74,175,185,175v111,0,186,-68,186,-175","w":545},"\u00f7":{"d":"345,-305v0,25,-24,41,-49,41v-47,0,-47,-44,-47,-93v0,-25,22,-41,47,-41v56,0,49,43,49,93xm13,-199r0,-81r552,0r0,81r-552,0xm345,-116v1,26,-23,42,-49,42v-47,0,-47,-44,-47,-93v0,-25,21,-43,47,-42v26,0,50,16,49,42r0,51","w":592},"\u00f8":{"d":"555,-245v0,186,-171,297,-370,250r-23,42r-105,0r43,-79v-73,-47,-109,-118,-109,-213v0,-183,165,-295,363,-253r28,-51r104,0r-46,87v77,48,115,120,115,217xm228,-75v131,23,233,-49,231,-170v0,-57,-21,-103,-64,-137xm309,-417v-131,-16,-222,52,-221,172v0,55,19,98,56,131","w":545},"\u00f9":{"d":"369,-509v3,34,-57,53,-84,26r-114,-111v-31,-27,-5,-75,33,-75v14,0,26,5,37,15v37,37,124,96,128,145xm250,11v-133,2,-230,-68,-229,-195r0,-323r96,0r0,322v0,73,44,109,133,109v105,0,157,-53,157,-158r0,-273r96,0r0,508r-96,0r0,-35v-43,30,-95,45,-157,45"},"\u00fa":{"d":"284,-658v39,-45,117,17,71,61r-113,109v-37,44,-116,-15,-71,-59xm250,11v-133,2,-230,-68,-229,-195r0,-323r96,0r0,322v0,73,44,109,133,109v105,0,157,-53,157,-158r0,-273r96,0r0,508r-96,0r0,-35v-43,30,-95,45,-157,45"},"\u00fb":{"d":"329,-483r-68,-82r-68,82r-114,0r153,-191r58,0r157,191r-118,0xm250,11v-133,2,-230,-68,-229,-195r0,-323r96,0r0,322v0,73,44,109,133,109v105,0,157,-53,157,-158r0,-273r96,0r0,508r-96,0r0,-35v-43,30,-95,45,-157,45"},"\u00fc":{"d":"369,-580v0,51,-1,95,-49,95v-46,0,-47,-46,-47,-95v0,-26,21,-44,47,-44v26,0,49,19,49,44xm253,-580v0,50,-2,95,-48,95v-47,0,-48,-45,-48,-95v0,-26,22,-44,48,-44v26,0,48,18,48,44xm250,11v-132,1,-229,-67,-229,-193r0,-321r96,0r0,320v0,71,44,107,133,107v105,0,157,-52,157,-156r0,-271r96,0r0,504r-96,0r0,-34v-43,29,-95,44,-157,44"},"\u00fd":{"d":"275,-659v37,-41,118,14,74,58r-119,117v-42,38,-114,-18,-68,-63xm503,-36v0,150,-105,216,-262,215v-151,-1,-238,-61,-244,-212r94,0v10,94,50,123,152,123v103,0,157,-37,163,-110v-43,30,-95,45,-156,45v-133,1,-229,-69,-229,-199r0,-329r96,0r0,328v0,74,44,111,133,111v105,0,157,-54,157,-161r0,-278r96,0r0,467","w":506},"\u00fe":{"d":"564,-247v0,164,-107,271,-271,271v-70,0,-129,-19,-176,-57r0,201r-96,0r0,-846r96,0r0,221v47,-39,106,-58,175,-58v165,0,272,106,272,268xm469,-246v0,-106,-63,-180,-171,-180v-109,0,-182,71,-181,177v0,123,60,185,180,185v108,0,172,-73,172,-182","w":564},"\u00ff":{"d":"361,-581v5,50,1,98,-48,98v-48,0,-47,-46,-47,-96v0,-26,21,-45,47,-45v29,0,45,14,48,43xm245,-581v4,50,3,98,-47,98v-48,0,-48,-46,-48,-96v0,-28,22,-45,48,-45v29,0,44,14,47,43xm503,-35v0,149,-106,215,-262,214v-150,-1,-238,-61,-244,-211r94,0v10,94,50,123,152,123v103,0,157,-37,163,-110v-43,30,-95,45,-156,45v-134,2,-230,-70,-229,-198r0,-328r96,0r0,327v0,74,44,111,133,111v105,0,157,-54,157,-161r0,-277r96,0r0,465","w":510},"\u0131":{"d":"21,0r0,-488r96,0r0,488r-96,0","w":136},"\u0152":{"d":"1,-337v0,-240,190,-341,450,-341r553,0r0,87r-348,0v59,51,94,116,105,195r212,0r0,87r-208,0v-7,91,-42,165,-105,222r350,0r0,88r-537,0v-263,42,-472,-93,-472,-338xm528,-568r0,172r136,0v-15,-81,-60,-138,-136,-172xm528,-309r0,202v85,-39,132,-107,140,-202r-140,0xm97,-337v0,183,139,277,336,255r0,-511v-197,-22,-336,73,-336,256","w":1010},"\u0153":{"d":"761,-500v175,0,296,102,276,293r-454,1v11,88,70,132,176,132v87,0,145,-36,175,-109r100,0v-47,134,-123,194,-277,194v-108,0,-185,-34,-230,-101v-53,67,-130,101,-231,101v-163,0,-280,-100,-280,-255v0,-155,120,-256,282,-256v107,0,185,36,235,107v53,-71,129,-107,228,-107xm933,-291v-15,-76,-79,-125,-172,-124v-91,1,-158,48,-176,124r348,0xm483,-244v0,-107,-73,-171,-186,-171v-112,0,-185,65,-185,171v0,105,75,170,185,170v110,0,186,-65,186,-170","w":1052},"\u0160":{"d":"347,-679r-59,0r-153,-195r114,0r68,84r68,-84r118,0xm631,-187v0,133,-152,195,-301,194v-200,-2,-351,-78,-332,-284r97,0v-12,143,59,191,236,195v101,2,204,-27,204,-107v0,-65,-33,-73,-91,-91v-56,-17,-266,-50,-320,-81v-67,-38,-103,-85,-103,-151v0,-125,97,-188,290,-188v201,0,303,84,306,252r-94,0v-10,-140,-66,-163,-212,-163v-129,0,-194,33,-194,99v0,31,15,55,46,70v25,13,70,24,133,35v124,21,207,44,250,69v57,33,85,83,85,151","w":642},"\u0161":{"d":"268,-492r-58,0r-153,-192r114,0r68,82r68,-82r119,0xm473,-144v1,107,-103,157,-224,157v-163,0,-245,-78,-245,-233r98,0v1,109,39,144,148,144v83,0,125,-23,125,-68v0,-27,-28,-46,-83,-58v-4,-1,-37,-6,-99,-15v-112,-16,-168,-64,-168,-145v0,-100,99,-157,207,-157v158,0,237,71,238,212r-99,0v-1,-96,-36,-122,-134,-123v-55,-1,-112,20,-114,68v-1,54,126,60,185,71v110,20,165,67,165,147","w":486},"\u0178":{"d":"442,-771v5,50,1,98,-48,98v-48,0,-47,-46,-47,-96v0,-26,21,-45,47,-45v29,0,45,14,48,43xm326,-771v4,50,3,98,-47,98v-48,0,-48,-46,-48,-96v0,-28,22,-45,48,-45v29,0,44,14,47,43xm381,-326r0,326r-96,0r0,-326r-352,-364r129,0r270,280r272,-280r126,0","w":663},"\u0192":{"d":"618,-578v-135,0,-200,28,-234,123r110,0r-24,90r-110,0r-87,339v-38,144,-156,194,-348,194r21,-88v134,0,211,-36,230,-109r86,-336r-76,0r29,-90r71,0v35,-155,154,-211,353,-211","w":584},"\u02c6":{"d":"198,-540r-70,-55r-70,55r-121,0r163,-134r54,0r170,134r-126,0","w":259},"\u02c7":{"d":"90,-549r-55,0r-163,-135r122,0r69,55r69,-55r127,0","w":136},"\u00af":{"d":"-3,-597r0,-19r320,0r0,19r-320,0","w":313},"\u02c9":{"d":"-3,-597r0,-19r320,0r0,19r-320,0","w":313},"\u02da":{"d":"180,-642v-3,96,-228,98,-233,0v4,-98,229,-97,233,0xm64,-646v-12,0,-18,1,-18,4v0,3,6,4,18,4v13,0,19,-1,19,-4v0,-3,-6,-4,-19,-4","w":136},"\u02dc":{"d":"361,-617v-23,101,-159,67,-246,45v-19,4,-13,12,-16,39r-89,-28v-3,-49,57,-70,106,-70v13,-4,118,25,134,26v20,-4,14,-9,18,-38","w":366},"\u03bc":{"w":584},"\u2013":{"d":"-38,-254r0,-20r569,0r0,20r-569,0","w":495},"\u2014":{"d":"-38,-254r0,-20r968,0r0,20r-968,0","w":894},"\u2018":{"d":"65,-651v12,-43,113,-29,93,21r-43,104v-13,42,-112,28,-92,-22","w":175},"\u2019":{"d":"66,-651v12,-43,112,-28,92,21r-42,103v-12,43,-114,29,-93,-21","w":175},"\u201a":{"d":"104,-60v12,-43,112,-28,92,21r-42,103v-10,40,-116,35,-92,-22","w":292},"\u201c":{"d":"170,-651v12,-43,113,-29,93,21r-43,104v-13,42,-112,28,-92,-22xm65,-651v12,-43,113,-29,93,21r-43,104v-13,42,-112,28,-92,-22","w":267},"\u201d":{"d":"171,-651v12,-43,112,-28,92,21r-42,103v-12,43,-114,29,-93,-21xm66,-651v12,-43,112,-28,92,21r-42,103v-12,43,-114,29,-93,-21","w":276},"\u201e":{"d":"209,-60v12,-43,112,-28,92,21r-42,103v-10,40,-116,35,-92,-22xm104,-60v12,-43,112,-28,92,21r-42,103v-10,40,-116,35,-92,-22","w":351},"\u2020":{"d":"213,-417r0,474r-96,0r0,-474r-118,0r0,-88r118,0r0,-116r96,0r0,116r118,0r0,88r-118,0","w":345},"\u2021":{"d":"218,-34r0,91r-96,0r0,-91r-118,0r0,-89r118,0r0,-294r-118,0r0,-88r118,0r0,-116r96,0r0,116r117,0r0,88r-117,0r0,294r117,0r0,89r-117,0","w":337},"\u2022":{"d":"225,-285v-24,47,-183,48,-207,0r0,-80v23,-48,183,-47,207,0r0,80","w":292},"\u2026":{"d":"524,2v-47,0,-48,-18,-48,-58v0,-19,16,-29,48,-29v47,0,48,18,48,58v0,19,-16,29,-48,29xm335,2v-47,0,-48,-18,-48,-58v0,-19,16,-29,48,-29v47,0,48,18,48,58v0,19,-16,29,-48,29xm146,2v-47,0,-48,-18,-48,-58v0,-19,16,-29,48,-29v47,0,48,18,48,58v0,19,-16,29,-48,29","w":638},"\u2030":{"d":"1019,-172v0,118,-58,191,-173,191v-114,0,-170,-73,-170,-191v0,-130,57,-195,171,-195v115,0,172,65,172,195xm714,-172v1,119,-57,191,-172,191v-115,0,-172,-72,-171,-191v0,-130,57,-195,172,-195v114,0,171,65,171,195xm159,2r-118,0r532,-680r117,0xm345,-465v0,117,-59,190,-173,190v-113,0,-170,-73,-170,-190v0,-129,57,-194,171,-194v115,0,172,65,172,194xm846,-279v-49,0,-73,36,-73,107v0,69,25,104,74,104v50,0,75,-35,75,-104v0,-71,-25,-107,-76,-107xm542,-279v-49,0,-74,36,-74,107v0,69,25,104,75,104v49,0,74,-35,74,-104v0,-71,-25,-107,-75,-107xm172,-572v-49,0,-73,36,-73,107v0,69,25,103,74,103v50,0,75,-34,75,-103v0,-71,-25,-107,-76,-107","w":1012},"\u2039":{"d":"34,-249r0,-49r224,-124r0,92r-98,56r98,56r0,89","w":294},"\u203a":{"d":"34,-129r0,-89r97,-56r-97,-56r0,-92r224,124r0,49","w":294},"\u2122":{"d":"674,-347r0,-155r-98,155r-67,0r-103,-160v0,38,0,91,1,160r-100,0r0,-254r-43,0r0,254r-100,0r0,-254r-148,0r0,-83r388,0r138,213r136,-213r97,0r0,337r-101,0","w":789},"\u00ad":{"d":"13,-231r0,-19r552,0r0,19r-552,0","w":592},"\u2212":{"d":"13,-231r0,-19r552,0r0,19r-552,0","w":592},"\u00b7":{"d":"119,-280v-47,0,-48,-18,-48,-58v0,-19,16,-29,48,-29v47,0,48,18,48,58v0,19,-16,29,-48,29","w":209},"\u2219":{"d":"119,-280v-47,0,-48,-18,-48,-58v0,-19,16,-29,48,-29v47,0,48,18,48,58v0,19,-16,29,-48,29","w":209},"\u00a0":{}}});
/*!
 * The following copyright notice may not be removed under any circumstances.
 * 
 * Copyright:
 * ©G.M.
 * 
 * Trademark:
 * GM / Walkway
 */
Cufon.registerFont({"w":525,"face":{"font-family":"Walkway Bold","font-weight":400,"font-stretch":"normal","units-per-em":"1000","panose-1":"0 0 4 0 0 0 0 0 0 0","ascent":"800","descent":"-200","x-height":"11","bbox":"-163 -874 1046 179","underline-thickness":"30","underline-position":"-118","unicode-range":"U+0020-U+2122"},"glyphs":{" ":{"w":354},"!":{"d":"72,-166r0,-512r51,0r0,512r-51,0xm97,0v-40,2,-26,-53,-26,-87v0,-16,9,-24,26,-24v39,-2,25,52,25,86v0,17,-8,25,-25,25","w":194},"\"":{"d":"203,-547v-46,0,-26,-66,-26,-104v0,-14,9,-21,26,-21v45,0,25,65,25,103v0,15,-8,22,-25,22xm87,-547v-44,0,-25,-66,-25,-104v0,-14,8,-21,25,-21v46,-1,26,65,26,103v0,15,-9,22,-26,22","w":292},"#":{"d":"461,-350r-90,0r-18,71r89,0r-11,45r-89,0r-19,73r-52,0r19,-73r-89,0r-19,73r-52,0r19,-73r-89,0r11,-45r89,0r19,-71r-91,0r14,-45r88,0r19,-73r52,0r-19,73r89,0r18,-73r52,0r-18,73r89,0xm231,-350r-19,71r89,0r18,-71r-88,0","w":531},"$":{"d":"608,-171v3,102,-95,166,-193,181r0,60r-51,0r0,-53v-33,2,-66,1,-96,-3r0,56r-51,0r0,-63v-139,-35,-202,-109,-196,-250r51,0v-5,112,41,173,145,201r0,-303v-116,-29,-174,-85,-174,-168v0,-95,58,-153,174,-176r0,-64r51,0r0,58v30,-1,67,-1,96,1r0,-59r51,0r0,66v118,27,178,100,179,219r-50,0v-6,-92,-49,-149,-129,-170r0,284v121,30,190,59,193,183xm364,-646v-29,-4,-66,-4,-96,-1r0,263r96,18r0,-280xm217,-639v-82,19,-123,61,-123,126v0,56,41,95,123,117r0,-243xm415,-38v74,-15,141,-57,142,-136v0,-34,-7,-58,-21,-73v-20,-21,-60,-40,-121,-57r0,266xm364,-315r-96,-19r0,301v29,3,65,4,96,2r0,-284","w":642},"%":{"d":"166,1r-62,0r498,-679r61,0xm560,19v-99,0,-149,-60,-149,-180v0,-123,50,-185,150,-185v99,0,148,62,148,185v0,120,-50,180,-149,180xm190,-294v-99,0,-148,-60,-148,-180v0,-123,50,-184,149,-184v99,0,149,61,149,184v0,120,-50,180,-150,180xm560,-299v-65,0,-97,46,-97,138v0,89,33,133,98,133v64,0,96,-44,96,-133v0,-92,-32,-138,-97,-138xm190,-611v-64,0,-96,46,-96,137v0,89,32,133,97,133v65,0,97,-44,97,-133v0,-91,-33,-137,-98,-137","w":750},"&":{"d":"261,-31v135,0,226,-105,225,-249r51,0r0,299r-51,0r0,-118v-57,77,-130,115,-219,115v-117,0,-241,-65,-236,-173v5,-115,100,-172,205,-225v-77,-41,-115,-95,-115,-162v0,-83,80,-134,168,-134v94,0,170,47,169,136v0,64,-64,130,-191,197v-63,33,-106,59,-127,78v-39,35,-58,71,-58,110v0,78,94,126,179,126xm407,-543v1,-55,-55,-88,-116,-88v-61,0,-120,31,-119,88v0,57,38,102,114,135v81,-45,121,-90,121,-135","w":603},"'":{"d":"87,-547v-44,0,-25,-66,-25,-104v0,-14,8,-21,25,-21v46,-1,26,65,26,103v0,15,-9,22,-26,22","w":175},"(":{"d":"186,168v-173,-256,-173,-647,0,-902r57,0v-181,263,-181,639,0,902r-57,0","w":233},")":{"d":"42,168r-57,0v187,-263,187,-639,0,-902r57,0v179,250,179,652,0,902","w":233},"*":{"d":"49,-584v-26,-8,-14,-43,10,-41v32,3,50,21,76,31v3,-32,-13,-78,26,-78v38,0,22,46,25,78v25,-10,46,-26,75,-31v24,-5,35,31,11,42r-57,25v23,15,66,18,72,47v4,20,-23,26,-40,19r-61,-29v-3,32,13,78,-25,78v-39,0,-23,-46,-26,-78v-25,10,-45,28,-75,32v-29,4,-33,-31,-10,-42r57,-27","w":340},"+":{"d":"305,-228r0,161r-51,0r0,-161r-191,0r0,-46r191,0r0,-159r51,0r0,159r192,0r0,46r-192,0","w":560},",":{"d":"135,74v-3,24,-59,21,-51,-4r45,-140v3,-27,52,-18,50,5","w":262},"-":{"d":"36,-254r0,-20r287,0r0,20r-287,0","w":350},"\u2010":{"d":"36,-254r0,-20r287,0r0,20r-287,0","w":350},".":{"d":"105,2v-37,0,-26,-37,-26,-67v0,-13,9,-20,26,-20v36,0,25,37,25,67v0,13,-8,20,-25,20","w":209},"\/":{"d":"32,0r-54,0r349,-694r54,0","w":350},"0":{"d":"550,-247v1,155,-99,259,-257,259v-155,0,-260,-104,-260,-259r0,-164v-2,-155,105,-260,260,-260v158,0,257,106,257,260r0,164xm292,-35v127,0,208,-85,207,-212r0,-164v2,-127,-82,-213,-207,-213v-127,0,-208,86,-208,213r0,164v-2,126,82,212,208,212","w":584},"1":{"d":"274,0r0,-573r-134,106r-78,0r222,-179r41,0r0,646r-51,0","w":413},"2":{"d":"297,-657v127,-1,226,51,226,167v0,57,-54,119,-165,176v-125,64,-249,156,-260,267r456,0r0,47r-511,0v1,-125,69,-228,205,-308r140,-80v57,-33,85,-67,85,-104v0,-83,-77,-119,-170,-118v-135,1,-197,60,-197,195r-51,0v-2,-161,87,-241,242,-242","w":584},"3":{"d":"556,-182v0,126,-123,194,-259,193v-164,-1,-281,-80,-271,-248r51,0v-14,140,85,200,216,201v109,2,213,-49,213,-146v0,-114,-110,-151,-255,-141r0,-47r62,0v119,0,179,-41,179,-122v0,-83,-92,-119,-186,-118v-138,1,-208,51,-209,184r-51,0v-1,-160,96,-230,257,-231v130,-1,240,49,240,165v0,71,-35,119,-104,144v78,27,117,83,117,166","w":584},"4":{"d":"434,-215r0,215r-51,0r0,-215r-374,0r223,-432r54,0r-199,385r296,0r0,-386r51,3r0,383r129,0r0,47r-129,0","w":584},"5":{"d":"549,-219v0,145,-111,231,-261,230v-164,-1,-265,-74,-264,-237r51,0v-1,134,80,189,214,190v121,1,209,-63,209,-182v0,-117,-95,-182,-217,-182v-83,0,-145,32,-186,95r-50,0r16,-341r458,0r0,47r-408,0r-9,216v45,-43,106,-64,183,-64v149,0,264,85,264,228","w":584},"6":{"d":"48,-443v-2,-133,109,-210,247,-210v143,0,245,80,242,227r-50,0v3,-119,-79,-183,-193,-183v-111,-1,-193,60,-193,168r-1,96v43,-48,107,-72,191,-72v138,0,242,80,242,213v0,132,-107,210,-244,210v-143,0,-241,-82,-241,-229r0,-220xm483,-204v0,-108,-83,-169,-193,-169v-112,0,-193,62,-193,169v0,107,85,167,193,167v109,0,193,-60,193,-167","w":584},"7":{"d":"221,0r-54,0r306,-599r-422,0r0,-47r500,0","w":584},"8":{"d":"574,-186v1,138,-122,197,-273,197v-152,0,-274,-61,-274,-199v0,-85,45,-141,135,-168v-67,-27,-100,-70,-100,-129v0,-121,106,-172,239,-172v133,0,239,52,239,172v0,59,-34,102,-102,129v91,27,136,84,136,170xm302,-376v86,0,187,-35,187,-110v0,-83,-63,-124,-188,-124v-125,0,-188,42,-188,126v0,73,105,108,189,108xm301,-36v122,0,221,-43,222,-151v0,-95,-74,-142,-221,-142v-149,0,-224,47,-224,142v0,108,101,151,223,151","w":601},"9":{"d":"295,-662v142,0,241,84,241,229r0,239v2,132,-110,209,-247,209v-144,0,-245,-79,-242,-225r50,0v-3,121,78,181,193,182v110,1,192,-63,193,-168r1,-115v-43,47,-107,71,-191,71v-137,0,-242,-78,-242,-210v0,-132,107,-212,244,-212xm487,-450v0,-108,-83,-169,-193,-169v-112,0,-193,62,-193,169v0,107,85,167,193,167v109,0,193,-60,193,-167","w":584},":":{"d":"123,-355v-40,2,-26,-51,-26,-85v0,-17,9,-25,26,-25v37,-2,25,53,25,86v0,16,-8,24,-25,24xm123,2v-40,2,-26,-52,-26,-86v0,-16,9,-24,26,-24v37,-2,25,52,25,85v0,17,-8,25,-25,25","w":244},";":{"d":"143,-354v-40,2,-26,-52,-26,-86v0,-17,9,-25,26,-25v39,-2,25,52,25,86v0,17,-8,25,-25,25xm129,72v-3,28,-59,23,-51,-4r45,-156v4,-15,14,-21,30,-17v16,4,22,15,18,30","w":251},"<":{"d":"33,-220r0,-41r460,-177r0,49r-386,149r386,149r0,49","w":535},"=":{"d":"35,-271r0,-42r560,0r0,42r-560,0xm35,-167r0,-42r560,0r0,42r-560,0","w":630},">":{"d":"33,-42r0,-49r386,-149r-386,-149r0,-49r460,177r0,41","w":535},"?":{"d":"265,-694v115,-1,220,58,220,166v0,59,-36,113,-102,169v-81,68,-108,100,-102,193r-52,0v-5,-98,26,-146,103,-214v62,-54,98,-66,102,-148v4,-81,-79,-121,-170,-119v-126,1,-179,57,-193,174r-47,-26v16,-127,102,-194,241,-195xm254,0v-39,2,-25,-53,-25,-87v0,-16,8,-24,25,-24v40,-2,26,52,26,86v0,17,-9,25,-26,25"},"@":{"d":"794,-398v-2,116,-79,260,-200,260v-35,0,-49,-22,-44,-65v-73,95,-265,111,-337,9v-60,-86,-31,-223,30,-296v76,-90,288,-110,346,-2r11,-75r48,0r-51,379v88,-10,144,-135,145,-212v3,-150,-145,-249,-302,-249v-189,0,-342,125,-342,309v0,181,157,307,341,305v123,-2,250,-62,295,-145r59,0v-56,112,-197,187,-349,191v-215,5,-400,-147,-400,-356v0,-205,181,-350,392,-350v189,0,361,116,358,297xm572,-383v0,-163,-217,-176,-295,-75v-32,42,-52,90,-52,149v0,88,54,143,144,141v117,-4,203,-91,203,-215","w":840},"A":{"d":"598,0r-97,-213r-362,0r-99,213r-58,0r318,-678r47,0r307,678r-56,0xm324,-604r-163,343r319,0","w":636},"B":{"d":"620,-189v1,130,-119,189,-261,189r-325,0r0,-678r338,0v125,-1,227,60,226,178v0,65,-37,113,-110,144v88,25,132,81,132,167xm547,-505v1,-86,-82,-126,-177,-126r-285,0r0,255r284,0v96,1,178,-41,178,-129xm570,-188v0,-100,-91,-141,-203,-141r-282,0r0,282r286,0v107,1,199,-45,199,-141","w":642},"C":{"d":"36,-334v0,-215,148,-351,366,-351v130,0,226,43,287,130r-43,27v-51,-73,-132,-110,-244,-110v-187,0,-315,115,-315,300v0,181,120,298,304,298v107,0,189,-37,246,-112r44,28v-67,87,-164,131,-289,131v-213,0,-356,-131,-356,-341","w":719},"D":{"d":"652,-338v0,219,-150,338,-375,338r-235,0r0,-678r273,0v218,-1,337,122,337,340xm601,-338v0,-192,-97,-293,-287,-293r-221,0r0,584r187,0v197,1,321,-97,321,-291","w":680},"E":{"d":"42,0r0,-678r516,0r0,47r-466,0r0,255r413,0r0,46r-413,0r0,283r471,0r0,47r-521,0","w":564},"F":{"d":"92,-631r0,255r368,0r0,46r-368,0r0,330r-50,0r0,-678r480,0r0,47r-430,0","w":505},"G":{"d":"721,-331v32,218,-129,336,-330,338v-224,2,-372,-125,-372,-344v0,-215,147,-350,365,-348v186,2,298,79,330,239r-52,0v-29,-128,-122,-192,-277,-192v-190,0,-315,112,-315,300v0,193,126,298,321,298v152,0,291,-88,281,-244r-291,0r0,-47r340,0","w":758},"H":{"d":"587,0r0,-330r-494,0r0,330r-51,0r0,-678r51,0r0,302r494,0r0,-302r51,0r0,678r-51,0","w":680},"I":{"d":"42,0r0,-678r51,0r0,678r-51,0","w":134},"J":{"d":"219,-40v124,0,169,-40,169,-162r0,-476r51,0r0,482v0,135,-72,203,-216,203v-135,0,-208,-58,-220,-175r52,0v7,85,62,128,164,128","w":486},"K":{"d":"616,0r-378,-357r-145,110r0,247r-51,0r0,-678r51,0r0,371r499,-371r81,0r-394,292r408,386r-71,0","w":670},"L":{"d":"42,0r0,-678r51,0r0,631r428,0r0,47r-479,0","w":505},"M":{"d":"725,0r0,-582r-295,582r-41,0r-296,-582r0,582r-51,0r0,-678r58,0r309,609r310,-609r57,0r0,678r-51,0","w":819},"N":{"d":"585,0r-492,-602r0,602r-51,0r0,-678r53,0r492,599r0,-599r51,0r0,678r-53,0","w":680},"O":{"d":"739,-339v0,214,-143,346,-360,346v-219,0,-359,-129,-359,-346v0,-215,142,-336,359,-336v217,0,360,121,360,336xm688,-339v0,-186,-120,-289,-309,-289v-189,0,-308,103,-308,289v0,185,121,299,308,299v190,0,309,-111,309,-299","w":757},"P":{"d":"604,-484v0,128,-120,188,-258,188r-253,0r0,296r-51,0r0,-678r315,0v165,0,247,65,247,194xm364,-343v99,1,189,-49,188,-141v0,-98,-63,-147,-189,-147r-270,0r0,288r271,0","w":621},"Q":{"d":"739,-338v-1,176,-95,293,-239,331v39,37,115,24,186,26r0,47v-107,1,-193,7,-242,-61v-253,30,-424,-105,-424,-343v0,-215,142,-337,359,-337v217,0,361,122,360,337xm688,-338v1,-186,-120,-290,-309,-290v-189,0,-309,104,-308,290v0,86,24,155,73,208v21,-54,82,-94,154,-95v86,-1,168,61,165,147v0,10,2,20,6,30v133,-30,219,-132,219,-290xm414,-79v7,-123,-216,-133,-230,-16v62,44,141,63,237,55v-5,-13,-7,-26,-7,-39","w":757},"R":{"d":"492,-331v70,27,105,80,105,159r0,172r-51,0r0,-170v0,-89,-62,-133,-186,-133r-267,0r0,303r-51,0r0,-678r327,0v159,0,238,59,238,178v0,83,-38,139,-115,169xm355,-352v112,1,200,-45,201,-145v0,-89,-62,-134,-185,-134r-278,0r0,279r262,0","w":642},"S":{"d":"608,-172v2,122,-139,180,-278,179v-183,-2,-319,-69,-309,-250r51,0v-6,143,78,200,259,203v114,2,226,-37,226,-135v0,-76,-38,-96,-107,-117v-44,-13,-288,-59,-316,-82v-61,-31,-91,-76,-91,-137v0,-116,89,-174,268,-174v187,0,281,73,283,218r-50,0v-9,-136,-84,-170,-233,-171v-145,0,-217,42,-217,127v0,98,86,111,198,132v121,23,202,44,243,69v49,29,73,75,73,138","w":642},"T":{"d":"298,-631r0,631r-51,0r0,-631r-259,0r0,-47r569,0r0,47r-259,0","w":545},"U":{"d":"621,-254v-1,184,-99,261,-289,261v-192,0,-290,-77,-290,-263r0,-422r51,0r0,422v0,144,80,216,239,216v159,0,238,-71,238,-213r0,-425r51,0r0,424","w":664},"V":{"d":"340,0r-43,0r-307,-678r54,0r275,606r266,-606r54,0","w":628},"W":{"d":"689,0r-43,0r-159,-364r-155,364r-43,0r-296,-678r54,0r264,604r148,-353r-109,-251r54,0r264,605r255,-605r53,0","w":970},"X":{"d":"570,0r-266,-311r-269,311r-65,0r300,-349r-285,-329r67,0r252,292r254,-292r66,0r-285,330r296,348r-65,0","w":604},"Y":{"d":"339,-328r0,328r-51,0r0,-328r-321,-350r66,0r280,304r281,-304r65,0","w":626},"Z":{"d":"22,0r0,-45r507,-586r-478,0r0,-47r546,0r0,44r-507,587r515,0r0,47r-583,0","w":626},"[":{"d":"86,168r0,-902r148,0r0,48r-97,0r0,806r97,0r0,48r-148,0","w":233},"\\":{"d":"320,0r-352,-694r54,0r352,694r-54,0","w":350},"]":{"d":"146,168r-147,0r0,-48r96,0r0,-806r-96,0r0,-48r148,0","w":233},"^":{"d":"203,-511r-56,-82r-56,82r-56,0r92,-135r38,0r98,135r-60,0","w":298},"_":{"d":"-15,119r0,-48r555,0r0,48r-555,0"},"`":{"d":"180,-550v0,19,-28,29,-45,14v-35,-31,-106,-77,-122,-117v2,-16,29,-27,47,-11r113,100v5,4,7,9,7,14","w":193},"a":{"d":"14,-243v0,-153,97,-257,250,-257v89,0,156,32,199,95r0,-93r51,0r0,499r-51,0r0,-88v-45,65,-112,98,-203,98v-149,0,-246,-105,-246,-254xm463,-243v0,-129,-75,-210,-204,-210v-119,0,-195,89,-195,210v0,122,74,207,195,207v121,0,204,-89,204,-207","w":564},"b":{"d":"541,-246v0,155,-96,257,-249,256v-86,0,-152,-33,-198,-98r0,88r-51,0r0,-678r51,0r0,265v43,-63,110,-95,199,-95v154,-2,248,106,248,262xm491,-247v0,-127,-70,-213,-194,-213v-133,0,-203,81,-203,216v0,121,83,207,204,207v121,0,193,-87,193,-210","w":564},"c":{"d":"506,-155v-24,105,-107,165,-232,166v-153,2,-256,-97,-256,-247v0,-158,104,-266,267,-264v114,2,192,56,216,152r-47,23v-23,-85,-80,-128,-171,-128v-133,0,-214,87,-214,217v0,123,79,202,204,200v102,-1,169,-47,185,-140"},"d":{"d":"14,-247v0,-153,97,-260,250,-260v89,0,156,32,199,95r0,-266r51,0r0,678r-51,0r0,-88v-45,66,-112,99,-203,99v-150,0,-246,-108,-246,-258xm463,-247v0,-131,-75,-213,-204,-213v-119,0,-195,92,-195,213v0,123,74,211,195,211v120,0,204,-92,204,-211","w":564},"e":{"d":"265,-500v161,1,266,100,253,273r-457,1v7,127,74,190,201,190v97,0,160,-40,191,-119r52,0v-33,111,-112,164,-245,166v-158,2,-249,-95,-249,-254v0,-151,103,-258,254,-257xm462,-273v-5,-109,-83,-180,-197,-180v-116,0,-193,72,-203,180r400,0"},"f":{"d":"341,-620v-149,3,-212,51,-203,175r111,0r0,48r-111,0r0,398r-51,0r0,-398r-72,0r0,-48r72,0v-9,-155,71,-218,254,-221r0,46","w":267},"g":{"d":"15,-248v0,-149,98,-252,249,-252v84,0,147,30,189,90r0,-79r51,0r0,466v0,135,-79,202,-238,202v-129,0,-217,-54,-222,-176r51,0v7,86,65,129,172,129v151,0,199,-74,186,-220v-45,59,-111,88,-196,88v-147,0,-242,-103,-242,-248xm453,-246v0,-114,-76,-207,-191,-207v-116,0,-196,87,-196,204v0,119,73,202,189,202v120,0,198,-81,198,-199","w":545},"h":{"d":"274,-508v117,0,206,63,206,175r0,333r-51,0r0,-324v1,-90,-63,-136,-154,-136v-110,0,-182,74,-181,182r0,278r-51,0r0,-678r51,0r0,249v39,-53,99,-79,180,-79"},"i":{"d":"94,-595v-17,23,-40,25,-51,-2r0,-70v13,-27,33,-25,51,-2r0,74xm43,0r0,-496r51,0r0,496r-51,0","w":136},"j":{"d":"94,-594v-17,22,-40,24,-51,-2r0,-71v13,-27,33,-25,51,-2r0,75xm-163,179r0,-47v135,0,203,-53,203,-158r0,-469r51,0r0,470v0,136,-85,204,-254,204","w":136},"k":{"d":"464,0r-258,-272r-112,79r0,193r-51,0r0,-678r51,0r0,426r343,-245r90,2r-280,194r286,301r-69,0","w":532},"l":{"d":"43,0r0,-678r51,0r0,678r-51,0","w":136},"m":{"d":"250,-453v-96,0,-156,80,-156,179r0,274r-51,0r0,-489r51,0r0,64v64,-100,275,-104,323,11v33,-57,91,-86,173,-86v122,0,183,57,183,172r0,328r-51,0r0,-319v0,-89,-43,-134,-130,-134v-93,0,-159,57,-158,147r0,306r-51,0r0,-319v0,-89,-44,-134,-133,-134","w":817},"n":{"d":"274,-500v117,0,206,61,206,172r0,328r-51,0r0,-319v1,-88,-62,-134,-154,-134v-109,0,-182,72,-181,179r0,274r-51,0r0,-489r51,0r0,67v39,-52,99,-78,180,-78"},"o":{"d":"532,-244v0,154,-106,255,-260,255v-154,0,-258,-104,-258,-255v0,-154,106,-256,260,-256v154,0,258,102,258,256xm481,-244v0,-125,-80,-209,-208,-209v-127,0,-208,83,-208,209v0,125,83,208,208,208v125,0,208,-83,208,-208","w":545},"p":{"d":"541,-243v0,156,-91,261,-248,261v-89,0,-155,-32,-199,-96r0,246r-51,0r0,-657r51,0r0,85v44,-64,110,-96,198,-96v154,0,249,103,249,257xm491,-242v0,-121,-74,-211,-193,-211v-123,0,-204,86,-204,209v0,135,70,215,203,215v122,0,194,-89,194,-213","w":564},"q":{"d":"14,-243v0,-146,98,-257,248,-257v90,0,157,32,200,96r0,-85r51,0r0,657r-51,0r0,-242v-41,61,-109,92,-204,92v-145,0,-244,-113,-244,-261xm463,-242v0,-123,-81,-211,-206,-211v-119,0,-192,89,-192,211v0,121,74,213,193,213v132,0,205,-80,205,-213","w":564},"r":{"d":"307,-453v-149,-2,-213,107,-213,257r0,196r-51,0r0,-489r51,0r0,83v40,-59,116,-95,213,-94r0,47","w":318},"s":{"d":"450,-129v1,99,-92,142,-201,142v-149,0,-223,-67,-223,-200r53,0v1,110,57,150,171,151v77,1,147,-27,147,-93v0,-40,-33,-68,-100,-83v-5,-1,-38,-7,-100,-16v-100,-15,-150,-59,-150,-130v0,-91,88,-143,185,-143v143,0,215,59,215,178r-54,0v-1,-97,-53,-128,-156,-129v-70,-1,-137,32,-137,94v0,40,33,66,98,77v17,3,53,10,106,19v97,17,146,61,146,133","w":486},"t":{"d":"156,-420r0,420r-49,0r-2,-420r-99,0r0,-47r99,0r0,-147r51,0r0,147r101,0r0,47r-101,0","w":263},"u":{"d":"250,-36v117,1,180,-70,179,-188r0,-264r51,0r0,489r-51,0r0,-68v-39,52,-99,78,-179,78v-123,0,-208,-64,-207,-182r0,-317r51,0r0,316v0,91,52,136,156,136"},"v":{"d":"268,0r-46,0r-236,-488r59,0r199,423r186,-423r56,0","w":471},"w":{"d":"560,0r-47,0r-123,-267r-114,267r-46,0r-225,-488r58,0r189,421r110,-263r-74,-158r59,0r188,421r176,-421r55,0","w":771},"x":{"d":"430,0r-197,-216r-196,216r-66,0r230,-253r-209,-235r66,0r175,200r179,-200r64,0r-209,235r229,253r-66,0","w":467},"y":{"d":"250,-29v118,1,180,-72,179,-191r0,-268r51,0r0,465v0,135,-80,202,-239,202v-128,0,-216,-54,-221,-176r51,0v7,86,65,129,172,129v139,-1,196,-62,186,-193v-39,53,-99,79,-179,79v-123,1,-208,-65,-207,-184r0,-322r51,0r0,321v0,92,52,138,156,138"},"z":{"d":"13,0r0,-42r360,-399r-331,0r0,-47r401,0r0,41r-360,400r377,0r0,47r-447,0","w":473},"{":{"d":"201,36v0,66,7,88,68,84r0,48v-80,6,-119,-25,-119,-107r0,-221v-4,-82,-10,-75,-76,-106r0,-35v17,-7,38,-18,61,-32v10,-12,15,-36,15,-73r0,-221v0,-82,39,-113,119,-107r0,48v-59,-4,-68,18,-68,83v0,116,32,285,-56,320v90,34,56,203,56,319","w":350},"|":{"d":"91,32r0,-738r51,0r0,738r-51,0","w":233},"}":{"d":"193,-406v3,83,15,77,76,105r0,35v-17,7,-38,18,-61,33v-10,12,-15,36,-15,73r0,221v0,82,-39,113,-119,107r0,-48v60,4,68,-18,68,-84r0,-198v3,-71,9,-98,56,-121v-89,-35,-56,-204,-56,-320v0,-65,-8,-87,-68,-83r0,-48v80,-6,119,25,119,107r0,221","w":350},"~":{"d":"509,-456v-9,65,-60,104,-129,105v-27,7,-186,-58,-212,-58v-36,0,-58,20,-66,59r-62,0v9,-65,60,-103,130,-104v26,-7,185,59,210,59v37,0,60,-20,67,-61r62,0","w":548},"\u00a1":{"d":"98,-472v-40,2,-26,-52,-26,-86v0,-17,9,-25,26,-25v39,-2,25,53,25,87v0,16,-8,24,-25,24xm71,95r0,-512r51,0r0,512r-51,0","w":194},"\u00a2":{"d":"506,-155v-21,142,-196,201,-345,147r-23,44r-54,0r35,-67v-67,-46,-101,-114,-101,-205v0,-183,140,-300,334,-259r29,-56r54,0r-37,72v51,25,86,68,103,130r-47,23v-15,-54,-40,-91,-77,-110r-194,385v119,43,264,-3,275,-125xm330,-451v-155,-29,-261,68,-261,215v0,71,24,124,71,161"},"\u00a3":{"d":"96,-411v-2,-155,105,-260,260,-260v77,0,142,28,197,83r-37,33v-76,-88,-236,-92,-313,-11v-37,39,-56,90,-56,155r298,0r-11,48r-287,0r0,74r272,0r-8,47r-264,0v1,123,83,209,208,207v63,0,116,-23,161,-68r38,31v-55,56,-121,84,-198,84v-156,0,-259,-103,-260,-254r-77,0r8,-47r69,0r0,-74r-54,0r11,-48r43,0","w":584},"\u00a4":{"d":"481,-191r-101,-84v-55,36,-142,36,-196,-1r-102,85r-37,-30r103,-86v-42,-45,-41,-118,1,-162r-104,-87r37,-30r103,86v54,-35,139,-34,193,0r103,-86r37,30r-103,86v43,46,42,117,1,164r102,85xm398,-387v0,-58,-54,-94,-116,-94v-59,0,-115,36,-115,93v0,57,57,95,115,95v59,0,116,-36,116,-94","w":584},"\u00a5":{"d":"349,-328r0,36r212,0r0,47r-212,0r0,74r212,0r0,48r-212,0r0,123r-51,0r0,-123r-212,0r0,-48r212,0r0,-74r-212,0r0,-47r212,0r0,-36r-321,-350r66,0r280,304r281,-304r65,0","w":645},"\u00a6":{"d":"91,-364r0,-332r51,0r0,332r-51,0xm91,23r0,-332r51,0r0,332r-51,0","w":233},"\u00a7":{"d":"289,-604v-71,-1,-139,33,-139,97v0,31,18,53,53,67v16,12,174,32,216,52v53,26,81,62,81,115v0,63,-32,106,-96,128v53,23,79,60,79,109v2,89,-88,144,-184,144v-142,0,-213,-59,-213,-178r51,0v1,97,54,131,157,131v74,1,137,-31,138,-97v0,-41,-27,-65,-79,-77v-86,-19,-186,-23,-236,-80v-64,-73,-28,-179,61,-204v-53,-23,-79,-60,-79,-110v-2,-89,88,-144,184,-144v143,0,214,60,214,179r-51,0v-1,-98,-54,-132,-157,-132xm137,-284v-6,102,175,131,263,87v32,-16,48,-41,49,-74v-15,-63,-71,-95,-168,-95v-84,0,-141,20,-144,82","w":584},"\u00a8":{"d":"165,-547v-33,0,-24,-30,-25,-58v0,-13,8,-19,25,-19v35,0,25,29,26,57v0,13,-9,20,-26,20xm50,-547v-34,0,-25,-30,-26,-58v0,-13,9,-19,26,-19v33,0,24,29,25,57v0,13,-8,20,-25,20","w":214},"\u00a9":{"d":"540,-454v0,128,-122,218,-255,218v-138,0,-257,-86,-257,-217v0,-128,123,-219,255,-219v133,0,257,90,257,218xm487,-453v0,-101,-98,-171,-202,-171v-106,0,-204,69,-204,170v0,101,98,171,202,171v106,0,204,-69,204,-170xm185,-451v-1,60,46,96,108,95v41,0,69,-24,84,-73r56,0v-25,81,-72,121,-140,121v-91,1,-161,-54,-161,-143v0,-88,69,-140,157,-139v81,0,128,39,141,118r-54,0v-10,-47,-39,-70,-88,-70v-60,-1,-103,33,-103,91","w":560},"\u00aa":{"d":"28,-500v0,-94,63,-160,161,-158v45,0,81,12,108,36r0,-35r53,0r0,309r-53,0r0,-32v-28,25,-65,38,-110,38v-96,0,-159,-66,-159,-158xm297,-500v0,-69,-40,-111,-110,-111v-67,0,-106,46,-106,111v0,66,38,111,106,111v65,0,111,-46,110,-111","w":378},"\u00ab":{"d":"172,-258r0,-31r179,-116r0,53r-118,78r118,79r0,50xm56,-258r0,-31r179,-116r0,53r-118,78r118,79r0,50","w":391},"\u00ac":{"d":"504,-134r0,-126r-470,0r0,-42r521,0r0,168r-51,0","w":602},"\u00ae":{"d":"529,-454v0,131,-119,218,-255,218v-135,0,-256,-87,-256,-217v0,-128,123,-219,255,-219v133,0,256,88,256,218xm476,-453v-2,-111,-91,-169,-202,-171v-106,-2,-203,68,-203,170v0,103,94,171,202,171v106,0,205,-68,203,-170xm374,-447v31,23,20,80,22,131r-54,0v-4,-50,19,-107,-45,-107r-73,0r0,107r-53,0r0,-270r129,0v97,-10,125,86,74,139xm346,-506v0,-44,-78,-28,-122,-31r0,65v46,-2,122,11,122,-34","w":543},"\u00b0":{"d":"374,-521v0,80,-80,136,-164,136v-84,0,-165,-55,-165,-135v0,-78,81,-135,164,-135v85,0,165,54,165,134xm325,-520v0,-57,-55,-91,-115,-91v-58,0,-115,35,-115,90v0,56,57,92,115,92v59,0,115,-34,115,-91","w":420},"\u00b1":{"d":"340,-226r0,164r-51,0r0,-164r-191,0r0,-46r191,0r0,-161r51,0r0,161r192,0r0,46r-192,0xm99,3r0,-47r434,0r0,47r-434,0","w":630},"\u00b2":{"d":"198,-614v-81,1,-115,33,-116,114r-54,0v0,-108,55,-162,166,-162v168,0,211,139,81,201v-70,33,-189,93,-197,158r293,0r0,47r-350,0v-1,-153,137,-192,237,-254v27,-16,40,-31,40,-45v0,-39,-33,-59,-100,-59","w":392},"\u00b3":{"d":"396,-375v1,82,-88,124,-178,123v-113,-1,-198,-48,-188,-165r55,0v-12,86,50,116,129,117v63,1,124,-22,128,-75v4,-64,-82,-77,-166,-72r0,-48v74,4,158,-4,158,-61v0,-39,-37,-58,-111,-58v-84,0,-124,27,-125,108r-54,0v0,-104,59,-156,178,-156v84,0,167,33,166,106v0,39,-17,67,-51,85v39,19,59,51,59,96","w":426},"\u00b4":{"d":"69,-536v-21,20,-65,-4,-39,-28r113,-101v13,-14,50,-10,47,13v0,6,-3,11,-8,16","w":212},"\u00b5":{"d":"459,95v-70,2,-136,-25,-138,-80v-100,12,-183,-13,-227,-75r0,231r-51,0r0,-659r51,0r0,268v0,119,62,191,179,191v104,0,156,-46,156,-139r0,-320r51,0r0,321v0,76,-30,129,-89,159v-9,5,-13,11,-13,19v0,22,27,33,81,33r0,51"},"\u00b6":{"d":"47,-458v0,-132,127,-229,266,-220r136,0r0,811r-51,0r0,-764r-56,0r0,764r-51,0r0,-371v-131,4,-244,-93,-244,-220","w":496},"\u00b8":{"d":"186,101v-1,-24,-73,-27,-99,-12v-1,-37,6,-66,9,-98r50,0r-2,46v65,0,97,22,97,67v-1,82,-139,82,-230,51r24,-40v36,11,64,16,85,16v44,0,66,-10,66,-30","w":259},"\u00b9":{"d":"168,-260r0,-323r-91,54r-94,0r200,-124r41,0r0,393r-56,0","w":287},"\u00ba":{"d":"383,-503v0,95,-79,153,-178,153v-98,0,-174,-58,-174,-153v0,-95,77,-153,177,-153v98,0,175,58,175,153xm334,-503v0,-72,-57,-111,-128,-111v-71,0,-126,43,-126,111v0,70,54,111,126,111v73,0,128,-40,128,-111","w":413},"\u00bb":{"d":"172,-145r0,-50r118,-79r-118,-78r0,-53r179,116r0,31xm56,-145r0,-50r118,-79r-118,-78r0,-53r179,116r0,31","w":381},"\u00bc":{"d":"679,-131r0,131r-50,0r0,-131r-274,0r169,-279r56,0r-142,234r191,0r0,-235r50,2r0,233r92,0r0,45r-92,0xm231,0r-54,0r348,-694r54,0xm191,-252r0,-336r-94,58r-86,0r191,-123r40,0r0,401r-51,0","w":816},"\u00bd":{"d":"598,-370v-83,1,-118,35,-118,119r-49,0v1,-109,55,-163,163,-163v161,0,206,137,85,198v-71,36,-197,105,-203,172r292,0r0,44r-345,0v1,-86,47,-153,137,-202v42,-23,140,-63,140,-104v0,-43,-34,-64,-102,-64xm220,0r-54,0r349,-694r54,0xm180,-252r0,-336r-93,58r-87,0r191,-123r40,0r0,401r-51,0","w":803},"\u00be":{"d":"770,-131r0,131r-50,0r0,-131r-274,0r170,-279r56,0r-143,234r191,0r0,-235r50,2r0,233r92,0r0,45r-92,0xm322,0r-54,0r349,-694r54,0xm406,-368v1,82,-88,125,-177,124v-133,-2,-192,-51,-185,-165r49,0v-12,88,52,119,133,120v64,1,131,-23,131,-79v0,-67,-80,-84,-167,-78r0,-44v77,4,158,-6,158,-64v0,-42,-38,-63,-114,-63v-85,0,-126,30,-127,111r-49,0v1,-103,60,-155,175,-155v87,0,164,32,164,107v0,39,-19,68,-57,87v44,21,66,54,66,99","w":906},"\u00bf":{"d":"256,-488v-39,2,-25,-52,-25,-86v0,-17,8,-25,25,-25v40,-2,26,53,26,87v0,16,-9,24,-26,24xm486,-99v-16,125,-102,193,-240,194v-117,1,-222,-58,-221,-167v1,-158,225,-183,205,-362r52,0v5,99,-26,147,-104,215v-62,54,-98,66,-102,147v-4,83,80,121,171,120v125,-1,179,-57,191,-176"},"\u00c0":{"d":"264,-818v-18,-15,-2,-40,18,-41v7,0,14,3,20,10r114,118v11,11,11,27,-4,36v-12,7,-24,7,-34,-4xm618,0r-97,-215r-362,0r-99,215r-58,0r318,-684r47,0r307,684r-56,0xm344,-610r-163,347r319,0","w":676},"\u00c1":{"d":"303,-701v-14,16,-49,10,-46,-15v0,-6,2,-12,7,-17r114,-118v13,-18,47,-12,45,14v0,6,-2,12,-7,17xm618,0r-97,-215r-362,0r-99,215r-58,0r318,-684r47,0r307,684r-56,0xm344,-610r-163,347r319,0","w":676},"\u00c2":{"d":"417,-687r-78,-103r-78,103r-58,0r118,-160r37,0r121,160r-62,0xm618,0r-97,-215r-362,0r-99,215r-58,0r318,-684r47,0r307,684r-56,0xm344,-609r-163,346r319,0","w":676},"\u00c3":{"d":"499,-786v-2,48,-38,84,-84,85v-15,7,-122,-55,-136,-53v-28,4,-34,25,-36,66r-47,-30v-2,-49,41,-83,85,-83v13,-6,121,55,134,53v27,-4,35,-24,37,-64xm618,0r-97,-215r-362,0r-99,215r-58,0r318,-683r47,0r307,683r-56,0xm344,-608r-163,346r319,0","w":676},"\u00c4":{"d":"398,-696v-36,2,-25,-46,-25,-78v0,-17,8,-25,25,-25v38,0,26,46,26,78v0,17,-9,25,-26,25xm283,-696v-38,0,-26,-46,-26,-78v0,-17,9,-25,26,-25v36,-2,25,46,25,78v0,17,-8,25,-25,25xm618,0r-97,-215r-362,0r-99,215r-58,0r318,-682r47,0r307,682r-56,0xm344,-608r-163,346r319,0","w":676},"\u00c5":{"d":"432,-788v0,50,-43,85,-93,85v-49,0,-93,-35,-93,-85v0,-49,44,-85,93,-85v50,0,93,35,93,85xm618,0r-97,-216r-362,0r-99,216r-58,0r318,-685r47,0r307,685r-56,0xm339,-823v-27,0,-40,12,-40,35v0,24,13,36,40,36v27,0,41,-12,41,-36v0,-23,-14,-35,-41,-35xm344,-610r-163,347r319,0","w":676},"\u00c6":{"d":"575,0r0,-330r-253,0r-303,330r-65,0r623,-678r464,0r0,47r-414,0r0,254r361,1r0,46r-361,0r1,283r418,0r0,47r-471,0xm366,-377r209,0r2,-227","w":1077},"\u00c7":{"d":"36,-331v0,-216,147,-354,366,-354v130,0,226,44,287,131r-43,27v-51,-73,-132,-110,-244,-110v-187,0,-315,117,-315,302v0,182,120,300,304,300v107,0,189,-37,246,-112r43,27v-67,89,-163,133,-288,133v-214,0,-356,-133,-356,-344xm436,92v0,-26,-72,-32,-98,-14v-1,-40,5,-74,8,-110r51,0r-2,52v65,0,97,25,97,76v-1,91,-136,91,-231,57r25,-44v36,11,64,17,85,17v43,0,65,-11,65,-34","w":719},"\u00c8":{"d":"365,-705v0,20,-29,33,-46,15r-113,-118v-11,-11,-11,-26,3,-35v13,-9,24,-9,35,3r114,118v5,5,7,11,7,17xm42,0r0,-684r516,0r0,48r-466,0r0,256r413,0r0,47r-413,0r0,285r471,0r0,48r-521,0","w":564},"\u00c9":{"d":"245,-690v-14,16,-49,10,-46,-15v0,-6,2,-12,7,-17r114,-118v13,-17,49,-9,46,15v0,6,-3,12,-8,17xm42,0r0,-684r516,0r0,48r-466,0r0,256r413,0r0,47r-413,0r0,285r471,0r0,48r-521,0","w":564},"\u00ca":{"d":"358,-697r-78,-103r-78,103r-58,0r118,-160r37,0r122,160r-63,0xm42,0r0,-684r516,0r0,47r-466,0r0,257r413,0r0,47r-413,0r0,285r471,0r0,48r-521,0","w":564},"\u00cb":{"d":"340,-704v-38,0,-26,-46,-26,-78v0,-17,9,-25,26,-25v36,-2,25,46,25,78v0,17,-8,25,-25,25xm224,-704v-36,2,-25,-46,-25,-78v0,-17,8,-25,25,-25v38,0,26,46,26,78v0,17,-9,25,-26,25xm42,0r0,-683r516,0r0,48r-466,0r0,256r413,0r0,46r-413,0r0,286r471,0r0,47r-521,0","w":564},"\u00cc":{"d":"150,-720v1,21,-29,32,-46,15r-113,-118v-12,-11,-10,-27,3,-36v13,-9,25,-8,36,4r113,118v5,5,7,11,7,17xm42,0r0,-684r51,0r0,684r-51,0","w":134},"\u00cd":{"d":"30,-701v-24,29,-63,-7,-39,-32r113,-118v13,-17,50,-12,47,14v0,6,-3,12,-8,17xm42,0r0,-684r51,0r0,684r-51,0","w":134},"\u00ce":{"d":"144,-693r-78,-103r-80,103r-57,0r118,-160r37,0r122,160r-62,0xm42,0r0,-684r51,0r0,684r-51,0","w":134},"\u00cf":{"d":"125,-711v-36,2,-25,-47,-25,-79v0,-16,8,-24,25,-24v36,0,24,45,26,77v0,17,-9,26,-26,26xm10,-711v-38,0,-27,-46,-27,-79v0,-16,9,-24,27,-24v34,0,23,46,25,77v0,17,-8,26,-25,26xm42,0r0,-683r51,0r0,683r-51,0","w":134},"\u00d0":{"d":"652,-338v0,219,-150,338,-375,338r-235,0r0,-316r-37,0r0,-48r37,0r0,-314r273,0v218,-1,337,122,337,340xm601,-338v0,-192,-97,-293,-287,-293r-221,0r0,267r198,0r0,48r-198,0r0,269r187,0v197,1,321,-97,321,-291","w":680},"\u00d1":{"d":"492,-781v-2,48,-38,85,-84,86v-15,7,-122,-55,-136,-53v-28,4,-34,25,-36,66r-47,-30v-3,-47,42,-83,84,-83v14,-7,122,55,135,53v27,-4,35,-24,37,-63xm585,0r-492,-606r0,606r-51,0r0,-682r53,0r492,603r0,-603r51,0r0,682r-53,0","w":680},"\u00d2":{"d":"462,-718v0,20,-28,32,-45,15r-114,-118v-15,-17,-9,-42,19,-40v9,0,15,3,20,8r113,118v5,5,7,11,7,17xm739,-342v0,216,-142,349,-360,349v-220,0,-359,-131,-359,-349v0,-216,141,-339,359,-339v218,0,360,123,360,339xm688,-342v0,-188,-119,-292,-309,-292v-189,0,-308,105,-308,292v0,186,120,301,308,301v191,0,309,-112,309,-301","w":757},"\u00d3":{"d":"340,-706v-15,15,-47,8,-45,-15v0,-7,3,-12,8,-17r113,-119v13,-20,47,-5,47,14v0,7,-3,13,-8,18xm739,-342v0,216,-142,349,-360,349v-220,0,-359,-131,-359,-349v0,-216,141,-339,359,-339v218,0,360,123,360,339xm688,-342v0,-188,-119,-292,-309,-292v-189,0,-308,105,-308,292v0,186,120,301,308,301v191,0,309,-112,309,-301","w":757},"\u00d4":{"d":"456,-705r-79,-102r-79,102r-57,0r117,-159r36,0r123,159r-61,0xm739,-342v0,216,-142,349,-360,349v-220,0,-359,-131,-359,-349v0,-216,141,-339,359,-339v218,0,360,123,360,339xm688,-342v0,-188,-119,-292,-309,-292v-189,0,-308,105,-308,292v0,186,120,301,308,301v191,0,309,-112,309,-301","w":757},"\u00d5":{"d":"533,-801v-5,48,-38,84,-85,85v-14,7,-122,-53,-135,-53v-21,0,-34,22,-38,66r-45,-30v-3,-47,42,-83,84,-83v14,-7,122,54,134,53v29,-4,36,-24,38,-64xm739,-341v0,215,-142,348,-360,348v-219,0,-359,-131,-359,-348v0,-216,141,-339,359,-339v218,0,360,123,360,339xm688,-341v0,-188,-119,-292,-309,-292v-189,0,-308,105,-308,292v0,186,120,300,308,300v190,0,309,-112,309,-300","w":757},"\u00d6":{"d":"437,-711v-37,0,-26,-46,-26,-79v0,-16,9,-24,26,-24v34,0,23,46,25,77v0,17,-8,26,-25,26xm321,-711v-36,2,-25,-47,-25,-79v0,-16,8,-24,25,-24v36,0,24,45,26,77v0,17,-9,26,-26,26xm739,-341v0,215,-142,348,-360,348v-219,0,-359,-131,-359,-348v0,-216,141,-339,359,-339v218,0,360,123,360,339xm688,-341v0,-188,-119,-291,-309,-291v-189,0,-308,104,-308,291v0,186,120,300,308,300v190,0,309,-112,309,-300","w":757},"\u00d7":{"d":"381,-109r-136,-111r-136,109r-36,-30r134,-111r-134,-109r38,-31r134,110r135,-110r38,32r-135,108r136,113","w":490},"\u00d8":{"d":"739,-339v0,215,-142,350,-360,347v-51,0,-96,-7,-137,-20r-21,41r-54,0r30,-59v-105,-51,-177,-166,-177,-309v0,-215,142,-339,359,-337v50,0,95,6,135,17r23,-45r54,0r-31,62v119,57,179,158,179,303xm379,-39v190,2,310,-112,309,-300v0,-127,-50,-214,-151,-259r-272,542v34,11,72,17,114,17xm492,-615v-224,-55,-421,50,-421,276v0,120,61,222,148,264","w":757},"\u00d9":{"d":"416,-710v0,19,-28,35,-46,16r-114,-120v-12,-12,-11,-26,3,-35v13,-9,25,-8,36,4r113,117v5,6,8,12,8,18xm621,-256v-1,185,-99,263,-289,263v-193,0,-290,-78,-290,-265r0,-426r51,0r0,425v0,145,80,218,239,218v159,0,238,-71,238,-214r0,-429r51,0r0,428","w":664},"\u00da":{"d":"294,-697v-14,15,-49,9,-46,-15v0,-6,3,-12,8,-18r113,-117v13,-17,50,-12,47,14v0,6,-3,12,-8,17xm621,-256v-1,185,-99,263,-289,263v-193,0,-290,-78,-290,-265r0,-426r51,0r0,425v0,145,80,218,239,218v159,0,238,-71,238,-214r0,-429r51,0r0,428","w":664},"\u00db":{"d":"410,-695r-80,-103r-78,103r-58,0r118,-160r37,0r122,160r-61,0xm621,-256v-1,185,-99,263,-289,263v-193,0,-290,-78,-290,-265r0,-426r51,0r0,425v0,145,80,218,239,218v159,0,238,-71,238,-214r0,-429r51,0r0,428","w":664},"\u00dc":{"d":"390,-711v-37,0,-26,-46,-26,-79v0,-16,9,-24,26,-24v37,0,25,45,25,77v0,17,-8,26,-25,26xm274,-711v-36,2,-25,-47,-25,-79v0,-16,8,-24,25,-24v38,0,26,45,26,77v0,17,-9,26,-26,26xm621,-255v-1,184,-100,262,-289,262v-193,0,-290,-77,-290,-264r0,-426r51,0r0,425v0,145,80,217,239,217v159,0,238,-71,238,-213r0,-429r51,0r0,428","w":664},"\u00dd":{"d":"292,-701v-14,16,-49,10,-46,-15v0,-6,2,-12,7,-17r114,-118v13,-17,50,-12,47,14v0,6,-3,12,-8,17xm355,-331r0,331r-51,0r0,-331r-321,-353r66,0r280,306r281,-306r65,0","w":657},"\u00de":{"d":"235,-168r-141,0r0,168r-51,0r0,-678r51,0r0,147r142,0v99,0,149,61,149,184v0,119,-50,179,-150,179xm235,-483r-141,0r0,270r142,-1v65,0,97,-44,97,-133v0,-91,-33,-136,-98,-136","w":425},"\u00df":{"d":"354,-412v69,29,139,120,137,208v-4,163,-114,236,-294,234r0,-47v162,0,243,-62,243,-187v0,-127,-104,-188,-243,-186r0,-48v71,0,119,-5,145,-15v39,-15,58,-43,58,-84v0,-91,-60,-105,-165,-106v-94,0,-141,45,-141,134r0,510r-51,0r0,-391r-35,0r0,-49r35,0v0,-29,1,-61,3,-96v5,-103,69,-155,191,-155v145,0,217,49,214,148v-2,67,-34,111,-97,130","w":505},"\u00e0":{"d":"177,-631v-18,-16,-3,-41,18,-42v8,0,15,3,21,10r113,117v10,12,9,27,-4,36v-11,7,-23,7,-34,-4xm14,-247v0,-153,97,-260,250,-260v89,0,156,32,199,96r0,-94r51,0r0,505r-51,0r0,-88v-45,66,-112,99,-203,99v-150,0,-246,-108,-246,-258xm463,-247v0,-130,-75,-213,-204,-213v-119,0,-195,92,-195,213v0,124,73,211,195,211v120,0,204,-92,204,-211","w":552},"\u00e1":{"d":"226,-514v-15,15,-47,8,-45,-15v0,-6,3,-12,8,-17r113,-117v13,-17,49,-12,46,13v0,7,-2,13,-7,18xm26,-247v0,-153,97,-260,250,-260v89,0,156,32,199,96r0,-94r51,0r0,505r-51,0r0,-88v-45,66,-112,99,-203,99v-150,0,-246,-108,-246,-258xm475,-247v0,-130,-75,-213,-204,-213v-119,0,-195,92,-195,213v0,124,73,211,195,211v120,0,204,-92,204,-211","w":552},"\u00e2":{"d":"342,-517r-79,-100r-79,100r-57,0r117,-157r36,0r123,157r-61,0xm26,-247v0,-153,97,-260,250,-260v89,0,156,32,199,96r0,-94r51,0r0,505r-51,0r0,-88v-45,66,-112,99,-203,99v-150,0,-246,-108,-246,-258xm475,-247v0,-130,-75,-213,-204,-213v-119,0,-195,92,-195,213v0,123,73,211,195,211v120,0,204,-92,204,-211","w":552},"\u00e3":{"d":"418,-611v-5,48,-38,83,-85,84v-15,7,-123,-52,-135,-52v-21,0,-34,22,-38,65r-45,-30v-3,-46,43,-82,84,-82v14,-6,121,54,134,52v29,-4,36,-23,38,-63xm26,-246v0,-153,97,-260,250,-260v89,0,156,32,199,96r0,-94r51,0r0,504r-51,0r0,-88v-45,66,-112,99,-203,99v-149,0,-246,-106,-246,-257xm475,-246v0,-130,-75,-213,-204,-213v-118,0,-195,92,-195,213v0,123,73,210,195,210v121,0,204,-91,204,-210","w":552},"\u00e4":{"d":"335,-522v-38,0,-26,-46,-26,-78v0,-16,9,-24,26,-24v37,0,25,45,25,77v0,17,-8,25,-25,25xm219,-522v-36,2,-25,-46,-25,-78v0,-16,8,-24,25,-24v38,0,26,45,26,77v0,17,-9,25,-26,25xm26,-246v0,-154,98,-260,250,-260v89,0,156,32,199,96r0,-94r51,0r0,505r-51,0r0,-89v-45,66,-112,99,-203,99v-149,0,-246,-106,-246,-257xm475,-246v0,-130,-75,-213,-204,-213v-118,0,-195,92,-195,213v0,123,73,210,195,210v121,0,204,-91,204,-210","w":552},"\u00e5":{"d":"362,-615v0,49,-43,84,-92,84v-50,0,-94,-35,-94,-84v0,-50,44,-85,94,-85v49,0,92,36,92,85xm26,-247v0,-154,96,-261,250,-261v89,0,156,32,199,96r0,-94r51,0r0,506r-51,0r0,-88v-45,66,-112,99,-203,99v-150,0,-246,-108,-246,-258xm270,-651v-27,0,-41,12,-41,36v0,23,14,35,41,35v27,0,40,-12,40,-35v0,-24,-13,-36,-40,-36xm475,-247v0,-131,-74,-214,-204,-214v-119,0,-195,93,-195,214v0,123,74,211,195,211v120,0,204,-92,204,-211","w":552},"\u00e6":{"d":"716,-500v161,0,266,100,253,273r-455,1v-3,128,63,190,200,190v97,0,160,-40,191,-119r52,0v-32,108,-115,166,-245,166v-89,0,-155,-27,-198,-82r0,72r-51,0r0,-88v-45,65,-112,98,-203,98v-149,0,-246,-105,-246,-254v0,-153,97,-257,250,-257v89,0,156,32,199,95r0,-93r51,0r0,94v50,-64,117,-96,202,-96xm913,-273v-5,-109,-83,-180,-197,-180v-107,0,-204,75,-202,180r399,0xm463,-243v0,-129,-75,-210,-204,-210v-119,0,-195,89,-195,210v0,122,74,207,195,207v121,0,204,-89,204,-207","w":984},"\u00e7":{"d":"506,-150v-24,106,-107,167,-232,168v-153,2,-256,-99,-256,-250v0,-160,103,-271,267,-268v114,1,192,57,215,154r-46,24v-23,-87,-80,-131,-171,-131v-132,-1,-214,88,-214,221v0,124,78,205,204,203v102,-1,169,-49,185,-142xm342,93v0,-26,-73,-32,-99,-14v-1,-41,6,-73,10,-109r50,0r-2,52v64,0,96,25,96,74v0,52,-39,78,-118,78v-25,0,-63,-7,-112,-21r23,-44v37,12,66,18,86,18v44,0,66,-11,66,-34"},"\u00e8":{"d":"347,-529v0,19,-29,32,-46,15r-115,-118v-15,-16,-9,-41,19,-39v9,0,15,2,20,7r114,118v5,5,8,11,8,17xm265,-507v162,1,266,102,253,277r-457,1v7,129,74,193,201,193v97,0,160,-40,191,-121r52,0v-33,111,-111,167,-245,168v-159,2,-249,-97,-249,-258v0,-152,102,-261,254,-260xm462,-277v-5,-110,-82,-183,-197,-183v-117,0,-193,74,-203,183r400,0"},"\u00e9":{"d":"340,-634r-116,118v-15,15,-47,8,-45,-15v0,-6,3,-12,8,-17r113,-117v19,-25,64,6,40,31xm265,-507v162,1,266,102,253,277r-457,1v7,129,74,193,201,193v97,0,160,-40,191,-121r52,0v-33,111,-111,167,-245,168v-159,2,-249,-97,-249,-258v0,-152,102,-261,254,-260xm462,-277v-5,-110,-82,-183,-197,-183v-117,0,-193,74,-203,183r400,0"},"\u00ea":{"d":"340,-517r-79,-100r-79,100r-58,0r119,-157r37,0r121,157r-61,0xm265,-507v162,1,266,102,253,277r-457,1v7,129,74,193,201,193v97,0,160,-40,191,-121r52,0v-33,111,-111,167,-245,168v-159,2,-249,-97,-249,-258v0,-152,102,-261,254,-260xm462,-277v-5,-110,-82,-183,-197,-183v-117,0,-193,74,-203,183r400,0"},"\u00eb":{"d":"321,-522v-36,2,-25,-46,-25,-78v0,-16,8,-24,25,-24v38,0,26,45,26,77v0,17,-9,25,-26,25xm206,-522v-38,0,-26,-46,-26,-78v0,-16,9,-24,26,-24v37,0,25,45,25,77v0,17,-8,25,-25,25xm265,-506v161,1,266,103,253,276r-457,1v7,129,74,193,201,193v97,0,160,-40,191,-120r52,0v-33,110,-112,166,-245,167v-160,2,-249,-96,-249,-257v0,-152,102,-261,254,-260xm462,-276v-5,-110,-82,-183,-197,-183v-117,0,-193,74,-203,183r400,0"},"\u00ec":{"d":"-8,-631v-18,-15,-3,-41,18,-42v7,0,14,3,20,10r114,117v12,11,10,28,-4,36v-11,7,-24,7,-34,-4xm43,0r0,-496r51,0r0,496r-51,0","w":136},"\u00ed":{"d":"31,-511v-14,16,-49,10,-46,-14v0,-6,2,-12,7,-17r114,-118v14,-16,48,-10,45,15v0,6,-2,12,-7,17xm43,0r0,-496r51,0r0,496r-51,0","w":136},"\u00ee":{"d":"141,-517r-72,-99r-74,99r-58,0r113,-157r37,0r115,157r-61,0xm43,0r0,-496r51,0r0,496r-51,0","w":136},"\u00ef":{"d":"129,-522v-36,0,-25,-46,-25,-78v0,-16,8,-24,25,-24v38,0,26,44,26,76v0,17,-9,26,-26,26xm14,-522v-37,0,-26,-46,-26,-78v0,-16,9,-24,26,-24v36,0,25,45,25,76v0,17,-8,26,-25,26xm43,0r0,-494r51,0r0,494r-51,0","w":136},"\u00f0":{"d":"14,-247v0,-153,97,-260,250,-260v89,0,156,32,199,95r0,-149r-332,0r0,-48r332,0r0,-69r51,0r0,678r-51,0r0,-88v-45,66,-112,99,-203,99v-150,0,-246,-108,-246,-258xm463,-247v0,-131,-75,-213,-204,-213v-119,0,-195,92,-195,213v0,123,74,211,195,211v120,0,204,-92,204,-211","w":564},"\u00f1":{"d":"418,-611v-2,47,-38,84,-84,84v-16,7,-123,-53,-136,-52v-28,4,-34,24,-36,65r-47,-30v-3,-44,44,-82,84,-82v14,-6,121,54,135,52v28,-4,35,-23,37,-63xm274,-506v117,0,206,62,206,174r0,332r-51,0r0,-323v1,-90,-63,-136,-154,-136v-110,0,-182,74,-181,182r0,277r-51,0r0,-494r51,0r0,67v39,-53,99,-79,180,-79"},"\u00f2":{"d":"197,-631v-18,-16,-3,-41,18,-42v8,0,15,3,21,10r113,117v10,12,9,27,-4,36v-11,7,-23,7,-34,-4xm532,-248v0,155,-105,259,-260,259v-155,0,-258,-106,-258,-259v0,-154,105,-259,260,-259v155,0,258,105,258,259xm481,-248v0,-126,-80,-212,-208,-212v-127,0,-208,86,-208,212v0,126,82,212,208,212v126,0,208,-86,208,-212","w":545},"\u00f3":{"d":"235,-510v-21,23,-64,-6,-39,-32r114,-118v14,-16,50,-11,47,15v0,6,-3,12,-8,17xm532,-248v0,155,-105,259,-260,259v-155,0,-258,-106,-258,-259v0,-154,105,-259,260,-259v155,0,258,105,258,259xm481,-248v0,-126,-80,-212,-208,-212v-127,0,-208,86,-208,212v0,126,82,212,208,212v126,0,208,-86,208,-212","w":545},"\u00f4":{"d":"351,-517r-79,-100r-80,100r-58,0r119,-157r36,0r123,157r-61,0xm532,-248v0,155,-105,259,-260,259v-155,0,-258,-106,-258,-259v0,-154,105,-259,260,-259v155,0,258,105,258,259xm481,-248v0,-127,-79,-212,-208,-212v-127,0,-208,86,-208,212v0,126,82,212,208,212v126,0,208,-86,208,-212","w":545},"\u00f5":{"d":"425,-611v-5,47,-37,83,-84,84v-15,7,-124,-53,-135,-52v-23,0,-35,22,-37,65r-47,-30v-2,-48,41,-82,85,-82v13,-6,121,52,134,52v21,0,34,-21,40,-63xm532,-247v0,154,-105,258,-260,258v-153,0,-258,-104,-258,-258v0,-154,105,-259,260,-259v154,0,258,105,258,259xm481,-247v0,-127,-79,-212,-208,-212v-127,0,-208,85,-208,212v0,126,82,211,208,211v126,0,208,-85,208,-211","w":545},"\u00f6":{"d":"331,-522v-38,0,-26,-46,-26,-78v0,-16,9,-24,26,-24v37,0,25,45,25,77v0,17,-8,25,-25,25xm215,-522v-36,2,-25,-46,-25,-78v0,-16,8,-24,25,-24v38,0,26,45,26,77v0,17,-9,25,-26,25xm532,-247v0,154,-105,258,-260,258v-153,0,-258,-104,-258,-258v0,-154,106,-259,260,-259v154,0,258,105,258,259xm481,-247v0,-126,-80,-212,-208,-212v-127,0,-208,86,-208,212v0,126,82,211,208,211v126,0,208,-85,208,-211","w":545},"\u00f7":{"d":"296,-291v-39,2,-25,-51,-25,-84v0,-15,8,-23,25,-23v40,-2,26,49,26,83v0,16,-9,24,-26,24xm35,-217r0,-46r507,0r0,46r-507,0xm296,-74v-38,2,-25,-50,-25,-83v0,-17,8,-25,25,-25v39,-2,26,50,26,84v0,16,-9,24,-26,24","w":592},"\u00f8":{"d":"532,-244v0,189,-171,300,-359,242r-25,49r-54,0r35,-70v-77,-47,-115,-120,-115,-221v0,-185,160,-297,351,-246r31,-59r54,0r-39,80v81,45,121,120,121,225xm195,-46v150,47,286,-45,286,-198v0,-80,-39,-149,-94,-182xm343,-446v-154,-39,-278,50,-278,202v0,78,29,137,86,176","w":545},"\u00f9":{"d":"187,-628v-18,-15,-2,-40,17,-41v8,0,15,3,21,10r114,117v11,11,11,27,-4,36v-12,7,-23,7,-34,-4xm250,-36v117,0,180,-72,179,-191r0,-269r51,0r0,496r-51,0r0,-68v-39,53,-99,79,-179,79v-124,1,-208,-65,-207,-185r0,-322r51,0r0,321v0,93,52,139,156,139"},"\u00fa":{"d":"226,-514v-14,15,-49,9,-46,-15v0,-6,2,-12,7,-17r113,-117v13,-17,50,-12,47,14v0,7,-3,13,-8,18xm250,-36v117,0,180,-72,179,-192r0,-268r51,0r0,496r-51,0r0,-68v-39,53,-99,79,-179,79v-124,1,-208,-65,-207,-185r0,-322r51,0r0,321v0,93,52,139,156,139"},"\u00fb":{"d":"340,-517r-79,-100r-79,100r-58,0r119,-157r37,0r121,157r-61,0xm250,-36v117,1,180,-73,179,-192r0,-268r51,0r0,496r-51,0r0,-68v-39,53,-99,79,-179,79v-124,1,-208,-65,-207,-185r0,-322r51,0r0,321v0,93,52,139,156,139"},"\u00fc":{"d":"320,-522v-36,2,-25,-46,-25,-78v0,-16,8,-24,25,-24v38,0,26,45,26,77v0,17,-9,25,-26,25xm205,-522v-38,0,-26,-46,-26,-78v0,-16,9,-24,26,-24v37,0,25,45,25,77v0,17,-8,25,-25,25xm250,-36v118,1,180,-72,179,-191r0,-267r51,0r0,495r-51,0r0,-69v-39,53,-99,79,-179,79v-123,1,-208,-65,-207,-184r0,-321r51,0r0,320v0,92,52,138,156,138"},"\u00fd":{"d":"215,-514v-23,22,-60,-9,-37,-33r113,-118v21,-25,64,6,40,31xm250,-31v118,1,180,-73,179,-193r0,-270r51,0r0,469v0,136,-80,204,-239,204v-129,0,-216,-55,-221,-178r51,0v7,87,65,130,172,130v139,-1,196,-62,186,-194v-39,53,-99,80,-179,80v-124,1,-208,-66,-207,-187r0,-324r51,0r0,323v0,93,52,140,156,140","w":506},"\u00fe":{"d":"541,-246v0,157,-93,263,-248,262v-89,0,-155,-32,-199,-96r0,248r-51,0r0,-846r51,0r0,268v44,-64,110,-96,198,-96v154,0,249,104,249,260xm491,-245v0,-123,-73,-214,-193,-214v-123,0,-204,88,-204,211v0,136,69,217,203,217v122,0,194,-90,194,-214","w":564},"\u00ff":{"d":"313,-521v-36,2,-25,-47,-25,-79v0,-16,8,-24,25,-24v36,0,26,45,26,77v0,17,-9,26,-26,26xm198,-521v-37,0,-26,-46,-26,-79v0,-16,9,-24,26,-24v35,0,25,45,25,77v0,17,-8,26,-25,26xm250,-30v118,1,180,-73,179,-193r0,-270r51,0r0,469v0,135,-80,203,-239,203v-129,0,-216,-55,-221,-178r51,0v7,87,65,131,172,131v139,-1,196,-62,186,-194v-39,53,-99,79,-179,79v-124,0,-208,-66,-207,-186r0,-324r51,0r0,323v0,93,52,140,156,140","w":510},"\u0131":{"d":"43,0r0,-488r51,0r0,488r-51,0","w":136},"\u0152":{"d":"23,-337v0,-236,173,-341,426,-341r532,0r0,47r-394,0v94,56,145,141,154,255r209,0r0,46r-207,0v-2,128,-52,222,-150,283r394,0r0,47r-516,0v-256,45,-448,-95,-448,-337xm505,-617r0,241r185,0v-11,-119,-84,-209,-185,-241xm505,-330r0,272v109,-37,187,-137,187,-272r-187,0xm74,-337v0,210,159,330,381,292r0,-585v-222,-35,-381,83,-381,293","w":1010},"\u0153":{"d":"761,-500v161,2,266,100,253,273r-456,1v7,127,74,190,201,190v97,0,160,-40,191,-119r52,0v-32,108,-115,166,-245,166v-116,0,-192,-45,-228,-134v-39,79,-121,133,-233,134v-154,2,-258,-104,-258,-255v0,-154,106,-257,260,-256v115,1,199,55,235,140v36,-80,123,-141,228,-140xm958,-273v-5,-109,-83,-180,-197,-180v-112,0,-194,75,-202,180r399,0xm505,-244v0,-125,-80,-209,-208,-209v-127,0,-208,83,-208,209v0,125,83,208,208,208v125,0,208,-83,208,-208","w":1052},"\u0160":{"d":"336,-714r-37,0r-118,-160r58,0r78,102r78,-102r62,0xm608,-174v0,123,-139,181,-278,181v-184,0,-320,-70,-309,-253r51,0v-7,144,77,202,259,205v114,1,226,-37,226,-136v0,-76,-39,-95,-107,-117v-52,-17,-255,-50,-316,-84v-60,-33,-91,-77,-91,-138v0,-117,89,-175,268,-175v187,0,281,73,283,219r-50,0v-9,-136,-84,-172,-233,-172v-145,0,-217,43,-217,128v0,98,86,112,198,133v121,22,202,45,243,70v49,29,73,76,73,139","w":642},"\u0161":{"d":"258,-526r-37,0r-118,-158r58,0r78,101r78,-101r63,0xm450,-131v0,100,-91,144,-201,144v-149,0,-223,-68,-223,-203r53,0v1,111,56,154,171,154v77,1,147,-28,147,-95v0,-41,-33,-69,-100,-84v-5,-1,-38,-7,-100,-17v-100,-15,-150,-59,-150,-132v0,-91,88,-145,185,-145v143,0,215,60,215,181r-54,0v-1,-98,-52,-131,-156,-131v-70,-1,-137,32,-137,95v0,74,117,83,204,98v97,17,146,62,146,135","w":486},"\u0178":{"d":"394,-711v-36,2,-25,-47,-25,-79v0,-16,8,-24,25,-24v36,0,24,45,26,77v0,17,-9,26,-26,26xm279,-711v-37,0,-26,-46,-26,-79v0,-16,9,-24,26,-24v34,0,23,46,25,77v0,17,-8,26,-25,26xm358,-330r0,330r-51,0r0,-330r-322,-353r67,0r280,306r281,-306r65,0","w":663},"\u0192":{"d":"600,-619v-148,0,-224,60,-245,176r110,0r-12,48r-110,0r-91,376v-31,125,-130,187,-299,187r11,-47v134,0,212,-44,234,-133r93,-383r-74,0r15,-48r71,0v26,-148,124,-223,308,-223","w":584},"\u02c6":{"d":"207,-540r-79,-85r-79,85r-58,0r119,-134r35,0r124,134r-62,0","w":259},"\u02c7":{"d":"80,-549r-36,0r-118,-135r58,0r79,86r79,-86r62,0","w":136},"\u00af":{"d":"20,-597r0,-19r274,0r0,19r-274,0","w":313},"\u02c9":{"d":"20,-597r0,-19r274,0r0,19r-274,0","w":313},"\u02da":{"d":"157,-642v0,44,-46,73,-93,73v-46,0,-94,-29,-94,-73v0,-44,48,-73,94,-73v46,0,93,29,93,73xm64,-672v-27,0,-41,10,-41,30v0,20,14,30,41,30v27,0,41,-10,41,-30v0,-20,-14,-30,-41,-30","w":136},"\u02dc":{"d":"335,-615v-5,39,-42,64,-85,64v-13,5,-121,-40,-135,-39v-25,2,-34,16,-36,48r-47,-22v-2,-37,49,-64,84,-63v13,-5,120,40,134,39v27,-2,36,-15,38,-47","w":366},"\u03bc":{"w":584},"\u2013":{"d":"-15,-254r0,-20r523,0r0,20r-523,0","w":495},"\u2014":{"d":"-15,-254r0,-20r922,0r0,20r-922,0","w":894},"\u2018":{"d":"93,-517v-4,23,-58,20,-50,-5r44,-139v4,-24,59,-19,51,5","w":175},"\u2019":{"d":"94,-517v-3,23,-59,20,-51,-4r45,-140v3,-27,52,-18,50,5","w":175},"\u201a":{"d":"132,74v-3,24,-59,21,-51,-4r45,-140v3,-27,52,-18,50,5","w":292},"\u201c":{"d":"198,-517v-4,23,-58,20,-50,-5r44,-139v4,-24,59,-19,51,5xm93,-517v-4,23,-58,20,-50,-5r44,-139v4,-24,59,-19,51,5","w":267},"\u201d":{"d":"199,-517v-3,23,-59,20,-51,-4r45,-140v3,-27,52,-18,50,5xm94,-517v-3,23,-59,20,-51,-4r45,-140v3,-27,52,-18,50,5","w":276},"\u201e":{"d":"237,74v-3,24,-59,21,-51,-4r45,-140v3,-27,52,-18,50,5xm132,74v-3,24,-59,21,-51,-4r45,-140v3,-27,52,-18,50,5","w":351},"\u2020":{"d":"190,-449r0,506r-51,0r0,-506r-117,0r0,-49r117,0r0,-123r51,0r0,123r118,0r0,49r-118,0","w":345},"\u2021":{"d":"195,-41r0,98r-51,0r0,-98r-118,0r0,-48r118,0r0,-360r-118,0r0,-49r118,0r0,-123r51,0r0,123r117,0r0,49r-117,0r0,360r117,0r0,48r-117,0","w":337},"\u2022":{"d":"202,-272v-20,31,-142,30,-162,0r0,-106v20,-30,141,-31,162,0r0,106","w":292},"\u2026":{"d":"524,2v-37,0,-26,-37,-26,-67v0,-13,9,-20,26,-20v36,0,25,37,25,67v0,13,-8,20,-25,20xm335,2v-37,0,-26,-37,-26,-67v0,-13,9,-20,26,-20v36,0,25,37,25,67v0,13,-8,20,-25,20xm146,2v-37,0,-26,-37,-26,-67v0,-13,9,-20,26,-20v36,0,25,37,25,67v0,13,-8,20,-25,20","w":638},"\u2030":{"d":"846,19v-99,0,-148,-60,-148,-180v0,-123,50,-185,149,-185v99,0,149,62,149,185v0,120,-50,180,-150,180xm148,1r-62,0r498,-679r61,0xm542,19v-99,0,-149,-60,-149,-180v0,-123,50,-185,150,-185v99,0,148,62,148,185v0,120,-50,180,-149,180xm172,-294v-99,0,-148,-60,-148,-180v0,-123,50,-184,149,-184v99,0,149,61,149,184v0,120,-50,180,-150,180xm846,-299v-64,0,-96,46,-96,138v0,89,32,133,97,133v65,0,97,-44,97,-133v0,-92,-33,-138,-98,-138xm542,-299v-65,0,-97,46,-97,138v0,89,33,133,98,133v64,0,96,-44,96,-133v0,-92,-32,-138,-97,-138xm172,-611v-64,0,-96,46,-96,137v0,89,32,133,97,133v65,0,97,-44,97,-133v0,-91,-33,-137,-98,-137","w":1012},"\u2039":{"d":"56,-258r0,-31r179,-116r0,53r-118,78r118,79r0,50","w":294},"\u203a":{"d":"56,-145r0,-50r118,-79r-118,-78r0,-53r179,116r0,31","w":294},"\u2122":{"d":"696,-347r0,-241r-133,241r-41,0r-139,-246v1,65,1,147,1,246r-55,0r0,-290r-88,0r0,290r-55,0r0,-290r-148,0r0,-47r353,0r151,265r149,-265r61,0r0,337r-56,0","w":789},"\u00ad":{"d":"35,-231r0,-19r507,0r0,19r-507,0","w":592},"\u2212":{"d":"35,-231r0,-19r507,0r0,19r-507,0","w":592},"\u00b7":{"d":"119,-280v-37,0,-24,-37,-26,-67v0,-13,9,-20,26,-20v36,0,25,37,25,66v0,14,-8,21,-25,21","w":209},"\u2219":{"d":"119,-280v-37,0,-24,-37,-26,-67v0,-13,9,-20,26,-20v36,0,25,37,25,66v0,14,-8,21,-25,21","w":209},"\u00a0":{}}});
/*!
 * The following copyright notice may not be removed under any circumstances.
 * 
 * Copyright:
 * ©G.M.
 * 
 * Trademark:
 * GM / Walkway
 */
